svm_type c_svc
kernel_type rbf
gamma 0.00129199
nr_class 10
total_sv 1424
rho 0.119681 -0.269559 -0.270069 0.373171 -0.0916521 -0.700044 -0.250533 0.0386963 0.156331 -0.251765 -0.404043 0.00364108 -0.196433 -0.519863 -0.36528 -0.0143109 -0.0548302 0.0609512 0.567804 0.201142 -0.235417 -0.0508626 0.508933 0.268685 0.833147 0.103154 -0.304056 -0.0787693 0.562712 0.358399 -0.442931 -0.830456 -0.564801 -0.399129 -0.0909366 -0.481952 -0.117418 0.332853 0.172491 0.264217 0.669428 1.03104 0.291197 0.353031 -0.02494
label 3 0 4 9 5 6 1 7 8 2
nr_sv 148 119 150 179 165 133 109 140 148 133
SV
0 0 0 1 0 0 0 0 0 121:0.235294 122:0.376471 123:0.376471 124:0.376471 125:0.376471 126:0.760784 127:1 128:0.913725 129:0.376471 130:0.282353 148:0.266667 149:0.894118 150:0.992157 151:0.984314 152:0.984314 153:0.984314 154:0.984314 155:0.992157 156:0.984314 157:0.984314 158:0.92549 159:0.356863 176:0.556863 177:0.984314 178:0.494118 179:0.494118 180:0.494118 181:0.494118 182:0.494118 183:0.494118 184:0.552941 185:0.984314 186:0.984314 187:0.984314 188:0.313725 204:0.0313725 205:0.121569 212:0.0156863 213:0.121569 214:0.337255 215:0.984314 216:0.619608 242:0.25098 243:0.984314 244:0.854902 245:0.152941 267:0.141176 268:0.45098 269:0.992157 270:0.992157 271:0.992157 272:0.623529 290:0.0470588 291:0.12549 292:0.12549 293:0.282353 294:0.745098 295:0.839216 296:0.984314 297:0.984314 298:0.984314 299:0.984314 300:0.541176 318:0.682353 319:0.984314 320:0.984314 321:0.984314 322:0.984314 323:0.992157 324:0.984314 325:0.984314 326:0.984314 327:0.67451 346:0.835294 347:0.984314 348:0.984314 349:0.984314 350:0.984314 351:0.992157 352:0.984314 353:0.984314 354:0.984314 355:0.521569 374:0.141176 375:0.368627 376:0.368627 377:0.368627 378:0.368627 379:0.372549 380:0.447059 381:0.984314 382:0.984314 383:0.984314 384:0.392157 408:0.0784314 409:0.619608 410:0.713725 411:0.992157 412:0.764706 413:0.0941176 438:0.0627451 439:0.709804 440:0.992157 441:0.709804 467:0.619608 468:0.992157 469:0.862745 495:0.619608 496:0.992157 497:0.972549 498:0.435294 522:0.156863 523:0.85098 524:0.992157 525:0.905882 526:0.184314 549:0.188235 550:0.52549 551:0.992157 552:1 553:0.631373 567:0.376471 568:0.745098 569:0.745098 570:0.12549 571:0.12549 572:0.12549 573:0.0470588 574:0.12549 575:0.12549 576:0.592157 577:0.866667 578:0.984314 579:0.984314 580:0.709804 581:0.0627451 595:0.498039 596:0.984314 597:0.984314 598:0.992157 599:0.984314 600:0.984314 601:0.678431 602:0.984314 603:0.992157 604:0.984314 605:0.984314 606:0.984314 607:0.984314 608:0.309804 623:0.372549 624:0.737255 625:0.894118 626:0.992157 627:0.984314 628:0.984314 629:0.984314 630:0.984314 631:0.992157 632:0.984314 633:0.858824 634:0.580392 635:0.121569 653:0.231373 654:0.372549 655:0.368627 656:0.678431 657:0.984314 658:0.596078 659:0.372549 660:0.368627 661:0.184314 
0 0 0 0 0 1 0 0.7278368241921527 0 125:0.121569 126:0.360784 127:0.839216 128:0.992157 129:0.321569 151:0.0823529 152:0.4 153:0.913725 154:0.988235 155:0.992157 156:0.831373 157:0.4 158:0.0784314 178:0.243137 179:0.996078 180:0.992157 181:0.996078 182:0.913725 183:0.996078 184:0.992157 185:0.917647 186:0.356863 187:0.0823529 206:0.0784314 207:0.592157 208:0.435294 209:0.196078 210:0.117647 211:0.196078 212:0.196078 213:0.117647 214:0.67451 215:0.87451 216:0.156863 243:0.756863 244:0.592157 270:0.321569 271:0.913725 272:0.592157 297:0.282353 298:0.913725 299:0.796078 300:0.0784314 323:0.0823529 324:0.556863 325:0.992157 326:0.831373 327:0.239216 347:0.2 348:0.2 349:0.2 350:0.360784 351:0.678431 352:0.992157 353:0.717647 354:0.0784314 374:0.321569 375:0.992157 376:0.988235 377:0.992157 378:0.988235 379:0.992157 380:0.670588 402:0.160784 403:0.796078 404:0.796078 405:0.796078 406:0.796078 407:0.917647 408:0.835294 409:0.2 410:0.0392157 435:0.117647 436:0.356863 437:0.992157 438:0.831373 439:0.160784 465:0.0823529 466:0.717647 467:0.917647 468:0.2 495:0.67451 496:0.909804 523:0.596078 524:0.992157 551:0.596078 552:0.988235 578:0.160784 579:0.678431 580:0.992157 597:0.321569 598:0.796078 599:0.639216 605:0.482353 606:0.952941 607:0.992157 608:0.509804 625:0.678431 626:0.992157 627:1 628:0.67451 629:0.6 630:0.596078 631:0.678431 632:0.992157 633:1 634:0.835294 635:0.321569 653:0.0392157 654:0.513725 655:0.67451 656:0.670588 657:0.992157 658:0.988235 659:0.913725 660:0.592157 661:0.356863 662:0.0392157 
1 0.9919600268929079 1 1 1 0.9501866716292072 1 1 0 149:0.184314 150:0.490196 151:0.690196 152:0.996078 153:0.996078 154:1 155:0.996078 156:0.243137 176:0.533333 177:0.968627 178:0.992157 179:0.992157 180:0.976471 181:0.776471 182:0.917647 183:0.992157 184:0.498039 204:0.658824 205:0.996078 206:0.705882 207:0.141176 208:0.129412 209:0.054902 210:0.945098 211:0.992157 212:0.317647 232:0.0784314 233:0.211765 234:0.0156863 236:0.235294 237:0.854902 238:0.972549 239:0.509804 240:0.0313725 263:0.360784 264:0.933333 265:0.862745 266:0.329412 290:0.447059 291:0.996078 292:0.996078 293:0.741176 294:0.537255 295:0.690196 296:0.996078 297:0.996078 298:0.996078 299:0.537255 300:0.0196078 318:0.192157 319:0.886275 320:0.992157 321:0.992157 322:0.996078 323:0.913725 324:0.992157 325:0.992157 326:0.992157 327:0.996078 328:0.4 347:0.121569 348:0.470588 349:0.141176 350:0.396078 351:0.0901961 352:0.141176 353:0.141176 354:0.647059 355:0.996078 356:0.835294 357:0.0705882 383:0.713725 384:0.992157 385:0.294118 411:0.639216 412:0.992157 413:0.498039 439:0.639216 440:0.996078 441:0.498039 467:0.639216 468:0.992157 469:0.498039 495:0.639216 496:0.992157 497:0.498039 523:0.662745 524:0.992157 525:0.345098 550:0.129412 551:0.996078 552:0.913725 553:0.0901961 566:0.321569 567:0.239216 578:0.713725 579:1 580:0.678431 594:0.501961 595:0.784314 596:0.137255 605:0.34902 606:0.972549 607:0.996078 608:0.34902 622:0.0705882 623:0.631373 624:0.941176 625:0.627451 626:0.168627 627:0.0235294 631:0.0313725 632:0.321569 633:0.886275 634:0.992157 635:0.521569 636:0.0117647 651:0.0941176 652:0.592157 653:0.996078 654:0.992157 655:0.811765 656:0.780392 657:0.52549 658:0.784314 659:0.827451 660:0.992157 661:0.984314 662:0.537255 681:0.282353 682:0.611765 683:0.635294 684:0.913725 685:0.992157 686:0.996078 687:0.658824 688:0.333333 689:0.262745 
0 1 1 1 1 1 1 1 0 151:0.027451 152:0.533333 153:0.635294 154:0.698039 155:0.698039 156:0.501961 177:0.0509804 178:0.576471 179:0.909804 180:0.992157 181:0.996078 182:0.992157 183:0.992157 184:0.992157 185:0.4 203:0.0117647 204:0.490196 205:0.866667 206:0.992157 207:0.984314 208:0.901961 209:0.541176 210:0.211765 211:0.478431 212:0.835294 213:0.945098 214:0.0745098 231:0.0941176 232:0.992157 233:0.996078 234:0.858824 235:0.247059 240:0.0980392 241:0.996078 242:0.352941 259:0.0666667 260:0.921569 261:0.72549 262:0.164706 268:0.466667 269:1 270:0.45098 288:0.721569 289:0.364706 290:0.235294 291:0.380392 292:0.447059 293:0.545098 294:0.541176 295:0.839216 296:0.968627 297:0.996078 298:0.45098 316:0.556863 317:0.780392 318:0.945098 319:0.992157 320:0.992157 321:0.996078 322:0.992157 323:0.992157 324:0.992157 325:0.839216 326:0.113725 344:0.0980392 345:0.533333 346:0.92549 347:0.992157 348:0.992157 349:0.996078 350:0.992157 351:0.827451 352:0.368627 353:0.0980392 374:0.2 375:0.396078 376:0.721569 377:0.996078 378:0.996078 379:0.996078 380:0.368627 405:0.0901961 406:0.780392 407:0.992157 408:0.960784 409:0.266667 434:0.0352941 435:0.505882 436:0.964706 437:0.945098 438:0.270588 464:0.329412 465:0.862745 466:0.941176 467:0.262745 493:0.333333 494:0.972549 495:0.796078 496:0.0745098 522:0.505882 523:0.992157 524:0.466667 546:0.0862745 547:0.0196078 550:0.101961 551:0.878431 552:0.662745 574:0.901961 575:0.478431 576:0.0980392 579:0.454902 580:0.992157 581:0.266667 602:0.905882 603:0.996078 604:0.862745 605:0.407843 606:0.27451 607:0.733333 608:0.996078 609:0.592157 630:0.639216 631:0.992157 632:0.992157 633:0.996078 634:0.992157 635:0.992157 636:0.992157 637:0.396078 658:0.0352941 659:0.505882 660:0.964706 661:0.996078 662:0.992157 663:0.992157 664:0.992157 665:0.329412 688:0.196078 689:0.501961 690:0.960784 691:0.992157 692:0.72549 
0 1 1 1 0 0 0 1 0 148:0.501961 149:0.992157 150:0.992157 151:1 152:0.992157 153:0.992157 154:0.992157 155:0.992157 156:0.764706 157:0.376471 158:0.376471 159:0.0470588 175:0.0784314 176:0.741176 177:0.862745 178:0.862745 179:0.913725 180:0.984314 181:0.984314 182:0.984314 183:0.984314 184:0.992157 185:0.984314 186:0.984314 187:0.121569 207:0.188235 208:0.494118 209:0.494118 210:0.494118 211:0.494118 212:0.992157 213:0.984314 214:0.984314 215:0.431373 240:0.215686 241:0.831373 242:0.984314 243:0.737255 266:0.156863 267:0.619608 268:0.760784 269:0.984314 270:0.984314 271:0.34902 291:0.141176 292:0.376471 293:0.682353 294:0.992157 295:0.992157 296:1 297:0.992157 298:0.803922 299:0.0745098 315:0.0156863 316:0.439216 317:0.745098 318:0.745098 319:0.839216 320:0.984314 321:0.984314 322:0.984314 323:0.984314 324:0.945098 325:0.396078 326:0.121569 343:0.12549 344:0.984314 345:0.984314 346:0.984314 347:0.992157 348:0.984314 349:0.984314 350:0.984314 351:0.984314 352:0.619608 371:0.0156863 372:0.431373 373:0.8 374:0.984314 375:0.992157 376:0.984314 377:0.984314 378:0.984314 379:0.984314 380:0.94902 381:0.866667 382:0.556863 383:0.0313725 401:0.0941176 402:0.368627 403:0.372549 404:0.368627 405:0.368627 406:0.909804 407:0.984314 408:0.992157 409:0.984314 410:0.984314 411:0.662745 412:0.231373 436:0.623529 437:0.666667 438:0.992157 439:0.992157 440:0.992157 441:0.235294 465:0.501961 466:0.862745 467:0.972549 468:0.984314 469:0.278431 470:0.0313725 495:0.556863 496:0.984314 497:0.992157 498:0.552941 523:0.0313725 524:0.505882 525:0.992157 526:0.862745 553:0.992157 554:0.941176 555:0.309804 581:0.764706 582:0.992157 583:0.678431 584:0.0470588 597:0.0313725 598:0.12549 606:0.0627451 607:0.282353 608:0.745098 609:0.839216 610:0.984314 611:0.611765 612:0.0313725 624:0.25098 625:0.619608 626:0.984314 627:0.501961 628:0.498039 629:0.498039 630:0.372549 631:0.313725 632:0.501961 633:0.498039 634:0.741176 635:0.984314 636:0.984314 637:0.992157 638:0.921569 639:0.247059 652:0.372549 653:0.8 654:0.984314 655:0.992157 656:0.984314 657:0.984314 658:0.956863 659:0.941176 660:0.992157 661:0.984314 662:0.984314 663:0.984314 664:0.827451 665:0.505882 666:0.105882 681:0.0941176 682:0.368627 683:0.6 684:0.984314 685:0.984314 686:0.984314 687:0.984314 688:0.992157 689:0.984314 690:0.67451 691:0.368627 692:0.137255 
0 0 1 1 0 1 0.3674432291020772 0 0 152:0.117647 153:0.74902 154:1 155:0.843137 156:0.176471 157:0.117647 178:0.0156863 179:0.560784 180:0.929412 181:0.992157 182:0.992157 183:0.992157 184:0.992157 185:0.929412 186:0.721569 187:0.156863 206:0.0431373 207:0.984314 208:0.988235 209:0.764706 210:0.545098 211:0.545098 212:0.545098 213:0.545098 214:0.894118 215:0.92549 216:0.760784 217:0.27451 218:0.00392157 235:0.25098 236:0.266667 243:0.772549 244:0.992157 245:0.992157 246:0.0196078 269:0.0784314 270:0.486275 271:0.984314 272:0.913725 273:0.32549 274:0.00784314 295:0.0352941 296:0.482353 297:0.913725 298:0.976471 299:0.72549 300:0.211765 321:0.176471 322:0.466667 323:0.913725 324:0.976471 325:0.803922 326:0.313725 346:0.501961 347:0.764706 348:0.764706 349:0.976471 350:0.992157 351:0.72549 352:0.419608 373:0.27451 374:0.980392 375:0.992157 376:0.992157 377:0.992157 378:0.992157 379:0.592157 380:0.0862745 402:0.321569 403:0.360784 404:0.360784 405:0.564706 406:0.780392 407:0.94902 408:0.964706 409:0.537255 410:0.0431373 435:0.321569 436:0.815686 437:0.992157 438:0.823529 439:0.0313725 464:0.0313725 465:0.462745 466:0.992157 467:0.439216 492:0.0235294 493:0.415686 494:0.992157 495:0.466667 520:0.0862745 521:0.992157 522:0.992157 523:0.466667 548:0.0156863 549:0.705882 550:0.992157 551:0.239216 575:0.0941176 576:0.501961 577:0.992157 578:0.992157 579:0.0392157 602:0.262745 603:0.8 604:0.992157 605:0.992157 606:0.501961 607:0.00784314 623:0.00392157 624:0.129412 625:0.129412 626:0.0745098 627:0.129412 628:0.27451 629:0.580392 630:0.988235 631:0.94902 632:0.611765 633:0.0196078 634:0.00392157 651:0.321569 652:0.992157 653:0.992157 654:0.866667 655:0.992157 656:0.992157 657:0.992157 658:0.815686 659:0.278431 679:0.258824 680:0.823529 681:0.67451 682:0.74902 683:0.568627 684:0.568627 685:0.180392 686:0.054902 
1 1 0 0.7401562371037712 1 0 0 1 1 121:0.0627451 122:0.752941 123:0.737255 124:0.996078 125:0.996078 126:1 127:0.996078 128:0.941176 129:0.462745 130:0.235294 149:0.137255 150:0.992157 151:0.992157 152:0.992157 153:0.992157 154:0.992157 155:0.992157 156:0.992157 157:0.992157 158:0.956863 159:0.407843 160:0.0509804 177:0.0235294 178:0.639216 179:0.847059 180:0.992157 181:0.992157 182:0.992157 183:0.992157 184:0.992157 185:0.992157 186:0.992157 187:0.992157 188:0.294118 206:0.129412 207:0.12549 208:0.239216 209:0.239216 210:0.239216 211:0.239216 212:0.321569 213:0.992157 214:0.992157 215:0.992157 216:0.737255 217:0.0470588 240:0.184314 241:0.992157 242:0.992157 243:0.992157 244:0.772549 245:0.0705882 267:0.145098 268:0.854902 269:0.992157 270:0.992157 271:0.992157 272:0.34902 294:0.141176 295:0.862745 296:0.992157 297:0.992157 298:0.992157 299:0.992157 300:0.133333 320:0.188235 321:0.619608 322:0.976471 323:0.992157 324:0.992157 325:0.992157 326:0.992157 327:0.815686 328:0.0745098 346:0.211765 347:0.627451 348:0.933333 349:0.992157 350:0.992157 351:0.992157 352:0.992157 353:0.984314 354:0.380392 355:0.0627451 371:0.231373 372:0.678431 373:0.807843 374:0.917647 375:0.992157 376:0.992157 377:0.992157 378:0.992157 379:0.992157 380:0.992157 381:0.819608 399:0.835294 400:0.992157 401:0.992157 402:0.992157 403:0.992157 404:0.992157 405:0.992157 406:0.992157 407:0.992157 408:0.992157 409:0.533333 410:0.0980392 427:0.835294 428:0.992157 429:0.992157 430:0.992157 431:0.992157 432:0.992157 433:0.992157 434:0.992157 435:0.992157 436:0.992157 437:0.992157 438:0.823529 439:0.647059 440:0.145098 455:0.360784 456:0.843137 457:0.992157 458:0.992157 459:0.992157 460:0.992157 461:0.992157 462:0.992157 463:0.992157 464:0.992157 465:0.992157 466:0.992157 467:0.992157 468:0.854902 469:0.137255 484:0.113725 485:0.505882 486:0.505882 487:0.505882 488:0.980392 489:0.556863 490:0.505882 491:0.862745 492:0.992157 493:0.992157 494:0.992157 495:0.992157 496:0.992157 497:0.74902 516:0.0509804 517:0.00784314 519:0.333333 520:0.509804 521:0.992157 522:0.992157 523:0.992157 524:0.992157 525:0.980392 526:0.278431 542:0.196078 543:0.32549 544:0.615686 545:0.807843 546:0.862745 547:0.956863 548:0.992157 549:0.992157 550:0.992157 551:0.992157 552:0.992157 553:0.992157 554:0.294118 569:0.0352941 570:0.690196 571:0.992157 572:0.992157 573:0.992157 574:0.992157 575:0.992157 576:0.992157 577:0.992157 578:0.992157 579:0.992157 580:0.992157 581:0.933333 582:0.223529 597:0.113725 598:0.92549 599:0.992157 600:0.992157 601:0.992157 602:0.992157 603:0.992157 604:0.992157 605:0.992157 606:0.992157 607:0.992157 608:0.85098 609:0.337255 626:0.592157 627:0.992157 628:0.992157 629:0.992157 630:0.992157 631:0.976471 632:0.909804 633:0.909804 634:0.647059 635:0.376471 636:0.0509804 654:0.27451 655:0.729412 656:0.992157 657:0.8 658:0.454902 659:0.368627 
0 1 1 0 0 1 1 1 1 124:0.666667 125:1 126:0.886275 127:0.552941 128:0.113725 151:0.113725 152:1 153:0.666667 154:0.776471 155:1 156:0.886275 157:0.552941 158:0.223529 180:0.337255 181:0.223529 183:0.447059 184:0.776471 185:1 186:1 187:0.666667 213:0.223529 214:0.666667 215:1 216:0.666667 243:0.447059 244:1 245:0.447059 271:0.337255 272:1 273:0.552941 299:0.666667 300:0.886275 301:0.113725 326:0.447059 327:1 328:0.552941 353:0.447059 354:1 355:0.666667 377:0.447059 378:0.666667 379:0.552941 380:0.447059 381:1 382:0.552941 404:0.552941 405:1 406:1 407:1 408:1 409:0.886275 432:0.447059 433:1 434:1 435:0.776471 436:0.776471 437:1 438:0.552941 465:0.666667 466:1 467:0.223529 493:0.223529 494:1 495:0.666667 522:0.776471 523:0.886275 550:0.337255 551:1 566:0.223529 567:0.113725 578:0.666667 579:1 594:0.666667 595:0.886275 596:0.223529 605:0.113725 606:1 607:0.776471 622:0.337255 623:0.886275 624:1 625:0.886275 626:0.337255 633:0.666667 634:1 635:0.552941 651:0.113725 652:0.666667 653:1 654:1 655:1 656:1 657:1 658:1 659:0.776471 660:0.776471 661:1 662:0.666667 
0 1 1 1 1 1 1 1 1 177:0.0705882 178:0.0862745 179:0.152941 180:0.0862745 181:0.117647 182:0.27451 183:0.360784 184:0.435294 185:0.694118 186:0.270588 204:0.541176 205:0.854902 206:0.882353 207:0.996078 208:0.882353 209:0.941176 210:0.941176 211:0.996078 212:0.996078 213:0.294118 214:0.776471 215:0.0980392 232:0.745098 233:0.988235 234:0.980392 235:0.996078 236:0.996078 237:0.894118 238:0.396078 239:0.92549 240:0.8 241:0.713725 242:0.992157 243:0.505882 260:0.745098 261:0.529412 262:0.160784 263:0.682353 264:0.403922 265:0.145098 268:0.137255 269:0.917647 270:0.996078 271:0.741176 288:0.192157 289:0.137255 295:0.027451 296:0.662745 297:0.996078 298:0.996078 299:0.603922 323:0.305882 324:0.996078 325:0.996078 326:0.701961 327:0.0352941 350:0.227451 351:0.976471 352:0.996078 353:0.92549 354:0.196078 378:0.364706 379:0.933333 380:0.513725 381:0.407843 406:0.752941 407:0.913725 434:0.788235 435:0.913725 462:0.788235 463:0.94902 464:0.388235 465:0.0705882 490:0.360784 491:0.913725 492:0.878431 493:0.360784 494:0.00392157 519:0.0666667 520:0.917647 521:0.996078 522:0.141176 548:0.227451 549:0.92549 550:0.627451 577:0.764706 578:0.992157 579:0.713725 605:0.498039 606:0.996078 607:0.741176 631:0.0352941 632:0.505882 633:0.968627 634:0.996078 635:0.568627 656:0.0117647 657:0.0745098 658:0.286275 659:0.592157 660:0.996078 661:0.894118 662:0.831373 663:0.00784314 683:0.14902 684:0.698039 685:0.870588 686:0.996078 687:0.996078 688:0.996078 689:0.490196 690:0.129412 712:0.52549 713:0.572549 714:0.72549 715:0.596078 716:0.572549 717:0.172549 
0 0 0 0 0 0 0 1 0 147:0.388235 148:0.870588 149:0.996078 150:1 151:0.717647 152:0.462745 153:0.941176 154:0.556863 155:0.462745 156:0.752941 157:0.462745 158:0.462745 159:0.0235294 175:0.835294 176:0.992157 177:0.992157 178:0.992157 179:0.992157 180:0.992157 181:0.992157 182:0.992157 183:0.992157 184:0.745098 185:0.831373 186:0.992157 187:0.921569 188:0.741176 189:0.286275 203:0.584314 204:0.694118 205:0.623529 206:0.156863 207:0.156863 208:0.156863 209:0.156863 210:0.156863 211:0.156863 212:0.054902 213:0.0901961 214:0.423529 215:0.815686 216:0.992157 217:0.952941 218:0.247059 243:0.0980392 244:0.894118 245:0.992157 246:0.701961 270:0.0666667 271:0.356863 272:0.952941 273:0.960784 274:0.427451 296:0.00784314 297:0.364706 298:0.788235 299:0.992157 300:0.992157 301:0.721569 321:0.184314 322:0.509804 323:0.509804 324:0.564706 325:0.992157 326:0.992157 327:0.992157 328:0.545098 329:0.105882 345:0.368627 346:0.972549 347:0.972549 348:0.972549 349:0.980392 350:0.992157 351:0.992157 352:0.992157 353:0.992157 354:0.992157 355:0.364706 356:0.00392157 373:0.67451 374:0.992157 375:0.992157 376:0.992157 377:0.992157 378:0.992157 379:0.992157 380:0.992157 381:0.992157 382:0.992157 383:0.384314 384:0.0470588 401:0.12549 402:0.184314 403:0.184314 404:0.184314 405:0.184314 406:0.184314 407:0.184314 408:0.184314 409:0.494118 410:0.721569 411:0.980392 412:0.831373 413:0.321569 439:0.47451 440:0.968627 441:0.796078 442:0.0588235 468:0.862745 469:0.992157 470:0.294118 495:0.247059 496:0.937255 497:0.992157 498:0.6 514:0.294118 515:0.490196 516:0.278431 522:0.239216 523:0.968627 524:0.992157 525:0.992157 526:0.564706 542:0.572549 543:0.588235 544:0.564706 545:0.0588235 550:0.290196 551:0.972549 552:0.992157 553:0.760784 554:0.0156863 569:0.117647 570:0.419608 577:0.188235 578:0.588235 579:0.988235 580:0.992157 581:0.74902 596:0.172549 597:0.811765 598:0.403922 603:0.0470588 604:0.305882 605:0.901961 606:0.992157 607:0.992157 608:0.992157 609:0.615686 624:0.219608 625:0.992157 626:0.819608 627:0.701961 628:0.701961 629:0.701961 630:0.701961 631:0.756863 632:0.992157 633:0.992157 634:0.913725 635:0.831373 636:0.364706 637:0.0627451 652:0.0823529 653:0.74902 654:0.992157 655:0.992157 656:0.992157 657:0.992157 658:0.992157 659:0.992157 660:0.941176 661:0.603922 662:0.192157 681:0.0627451 682:0.454902 683:0.729412 684:0.992157 685:0.509804 686:0.454902 687:0.454902 688:0.160784 
0.01693548042022956 0.2649077079077953 0.6844930987516085 1 0 0.6076758660491601 0 0 0 122:0.172549 123:0.666667 124:0.862745 125:0.882353 126:0.513725 127:0.133333 128:0.027451 129:0.00784314 150:0.0823529 151:0.462745 152:0.807843 153:0.94902 154:0.984314 155:0.996078 156:0.996078 157:0.615686 158:0.101961 182:0.333333 183:0.439216 184:0.854902 185:0.996078 186:0.839216 187:0.345098 212:0.133333 213:0.576471 214:0.984314 215:0.643137 216:0.0117647 241:0.0431373 242:0.87451 243:0.996078 244:0.0941176 268:0.121569 269:0.678431 270:0.996078 271:0.74902 272:0.0352941 293:0.0431373 294:0.305882 295:0.658824 296:0.933333 297:0.996078 298:0.85098 299:0.266667 317:0.0313725 318:0.517647 319:0.682353 320:0.682353 321:0.760784 322:0.996078 323:0.996078 324:0.937255 325:0.8 326:0.117647 345:0.117647 346:0.921569 347:0.996078 348:0.996078 349:0.996078 350:0.996078 351:0.996078 352:0.74902 353:0.0392157 374:0.262745 375:0.419608 376:0.501961 377:0.266667 378:0.4 379:0.752941 380:0.952941 381:0.607843 382:0.0352941 408:0.67451 409:0.996078 410:0.27451 411:0.133333 436:0.321569 437:0.996078 438:0.917647 439:0.694118 440:0.027451 464:0.0627451 465:0.596078 466:0.952941 467:0.682353 468:0.0196078 494:0.854902 495:0.933333 496:0.0784314 521:0.298039 522:0.976471 523:0.662745 524:0.0156863 549:0.772549 550:0.996078 551:0.603922 567:0.247059 568:0.419608 569:0.152941 576:0.494118 577:0.984314 578:0.996078 579:0.403922 595:0.584314 596:0.996078 597:0.576471 601:0.109804 602:0.443137 603:0.823529 604:0.984314 605:0.996078 606:0.443137 607:0.0117647 623:0.360784 624:0.996078 625:0.992157 626:0.952941 627:0.952941 628:0.952941 629:0.964706 630:0.996078 631:0.996078 632:0.619608 633:0.368627 634:0.00784314 651:0.00392157 652:0.321569 653:0.819608 654:1 655:1 656:0.996078 657:0.996078 658:0.996078 659:0.231373 660:0.00392157 
1 0 0 1 0 0 0 0 0 119:0.113725 120:1 121:1 122:0.996078 123:1 124:0.996078 125:0.996078 126:0.996078 127:0.996078 128:0.843137 129:0.509804 130:0.333333 131:0.027451 132:0.00392157 147:0.317647 148:0.945098 149:0.945098 150:0.858824 151:0.792157 152:0.945098 153:0.823529 154:0.827451 155:0.945098 156:0.945098 157:0.984314 158:0.992157 159:0.992157 160:0.117647 185:0.364706 186:0.639216 187:0.992157 188:0.607843 189:0.00784314 214:0.188235 215:0.937255 216:0.992157 217:0.356863 242:0.427451 243:0.992157 244:0.992157 245:0.498039 267:0.0431373 268:0.301961 269:0.631373 270:0.941176 271:0.992157 272:0.658824 273:0.027451 291:0.0352941 292:0.172549 293:0.172549 294:0.305882 295:0.756863 296:0.992157 297:0.992157 298:0.847059 299:0.631373 300:0.0313725 316:0.027451 317:0.505882 318:0.682353 319:0.741176 320:0.992157 321:0.992157 322:0.992157 323:0.992157 324:0.992157 325:0.521569 326:0.0470588 344:0.0352941 345:0.737255 346:0.992157 347:0.992157 348:0.992157 349:0.992157 350:0.992157 351:0.992157 352:0.992157 353:0.894118 354:0.52549 355:0.027451 373:0.243137 374:0.431373 375:0.266667 376:0.266667 377:0.266667 378:0.266667 379:0.266667 380:0.419608 381:0.952941 382:0.992157 383:0.568627 384:0.0235294 409:0.2 410:0.752941 411:0.992157 412:0.572549 413:0.0196078 438:0.258824 439:0.956863 440:0.992157 441:0.45098 467:0.360784 468:0.964706 469:0.694118 470:0.0156863 496:0.901961 497:0.992157 498:0.0470588 523:0.513725 524:0.980392 525:0.831373 526:0.0313725 550:0.752941 551:0.980392 552:0.992157 553:0.129412 575:0.12549 576:0.415686 577:0.580392 578:0.980392 579:0.992157 580:0.819608 581:0.282353 593:0.501961 594:0.890196 595:0.184314 601:0.32549 602:0.439216 603:0.839216 604:0.992157 605:0.992157 606:0.992157 607:0.603922 608:0.0862745 621:0.533333 622:0.992157 623:0.968627 624:0.94902 625:0.94902 626:0.94902 627:0.94902 628:0.94902 629:0.980392 630:0.992157 631:0.992157 632:0.992157 633:0.607843 634:0.352941 635:0.00784314 649:0.27451 650:0.780392 651:0.992157 652:0.992157 653:0.992157 654:0.992157 655:0.992157 656:0.992157 657:0.992157 658:0.623529 659:0.364706 660:0.0196078 661:0.00392157 
0 0 0 1 0 0 0 0 0 122:0.0196078 123:0.027451 124:0.376471 125:0.513725 126:0.886275 127:0.858824 128:0.513725 129:0.513725 130:0.32549 149:0.0745098 150:0.827451 151:0.972549 152:0.988235 153:0.960784 154:0.960784 155:0.94902 156:0.988235 157:0.996078 158:0.827451 159:0.0901961 178:0.290196 179:0.223529 180:0.341176 181:0.109804 182:0.105882 184:0.352941 185:0.439216 186:0.917647 187:0.827451 188:0.054902 214:0.854902 215:0.996078 216:0.0941176 241:0.0431373 242:0.87451 243:0.996078 244:0.0941176 268:0.0470588 269:0.678431 270:0.996078 271:0.996078 272:0.0941176 295:0.282353 296:0.768627 297:0.996078 298:0.933333 299:0.635294 300:0.0352941 318:0.0352941 319:0.196078 320:0.196078 321:0.552941 322:0.682353 323:0.929412 324:0.996078 325:0.929412 326:0.505882 345:0.105882 346:0.756863 347:0.996078 348:0.996078 349:0.996078 350:0.996078 351:0.996078 352:0.996078 353:0.419608 373:0.113725 374:0.796078 375:0.831373 376:0.752941 377:0.752941 378:0.752941 379:0.945098 380:0.996078 381:0.905882 382:0.227451 402:0.0431373 403:0.0784314 407:0.192157 408:0.635294 409:0.952941 410:0.909804 411:0.223529 437:0.686275 438:0.996078 439:0.913725 440:0.0745098 465:0.0666667 466:0.72549 467:0.996078 468:0.490196 494:0.368627 495:0.996078 496:0.929412 497:0.0588235 522:0.368627 523:0.996078 524:0.843137 525:0.0470588 549:0.137255 550:0.854902 551:0.996078 552:0.392157 566:0.0313725 567:0.376471 575:0.12549 576:0.419608 577:0.854902 578:0.996078 579:0.631373 580:0.054902 594:0.529412 595:0.992157 596:0.627451 597:0.376471 598:0.0784314 599:0.141176 600:0.313725 601:0.443137 602:0.811765 603:0.94902 604:0.996078 605:0.996078 606:0.443137 607:0.0117647 622:0.0980392 623:0.996078 624:0.996078 625:0.992157 626:0.960784 627:0.968627 628:0.984314 629:0.996078 630:0.996078 631:0.862745 632:0.533333 633:0.129412 634:0.00784314 650:0.00392157 651:0.309804 652:0.568627 653:1 654:1 655:0.662745 656:0.403922 657:0.0235294 658:0.0235294 659:0.0156863 
0.9684948387735246 0 0 1 0 0 0 0 0 148:0.0588235 149:0.0705882 150:0.513725 151:0.533333 152:0.827451 153:0.996078 154:0.996078 155:1 156:0.996078 157:0.301961 174:0.0980392 175:0.490196 176:0.921569 177:0.992157 178:0.992157 179:0.992157 180:0.992157 181:0.992157 182:0.992157 183:0.992157 184:0.992157 185:0.952941 186:0.0588235 200:0.0156863 201:0.494118 202:0.890196 203:0.992157 204:0.921569 205:0.784314 206:0.784314 207:0.521569 208:0.321569 209:0.321569 210:0.321569 211:0.572549 212:0.992157 213:0.992157 214:0.415686 228:0.419608 229:0.992157 230:0.992157 231:0.784314 232:0.466667 239:0.501961 240:0.992157 241:0.992157 242:0.415686 256:0.913725 257:0.992157 258:0.756863 259:0.164706 266:0.270588 267:0.890196 268:0.992157 269:0.956863 270:0.0784314 284:0.772549 285:0.509804 286:0.0392157 292:0.0705882 293:0.52549 294:0.968627 295:0.992157 296:0.992157 297:0.341176 312:0.0196078 318:0.0117647 319:0.286275 320:0.788235 321:0.992157 322:0.992157 323:0.992157 324:0.992157 325:0.498039 326:0.490196 327:0.184314 328:0.0196078 346:0.74902 347:0.992157 348:0.992157 349:0.992157 350:0.992157 351:0.992157 352:0.992157 353:0.992157 354:0.992157 355:0.992157 356:0.882353 357:0.192157 358:0.0156863 374:0.952941 375:0.992157 376:0.992157 377:0.992157 378:0.866667 379:0.831373 380:0.831373 381:0.831373 382:0.85098 383:0.992157 384:0.992157 385:0.992157 386:0.494118 387:0.0117647 402:0.729412 403:0.717647 404:0.298039 405:0.298039 406:0.0705882 410:0.0352941 411:0.388235 412:0.760784 413:0.945098 414:0.992157 415:0.501961 441:0.788235 442:0.992157 443:0.992157 469:0.788235 470:0.992157 471:0.992157 497:0.788235 498:0.992157 499:0.992157 525:0.788235 526:0.992157 527:0.992157 542:0.0588235 543:0.117647 544:0.0431373 551:0.0235294 552:0.454902 553:0.909804 554:0.992157 555:0.937255 568:0.0666667 569:0.188235 570:0.8 571:0.976471 572:0.301961 578:0.109804 579:0.552941 580:0.992157 581:0.992157 582:0.917647 583:0.215686 595:0.0745098 596:0.729412 597:0.992157 598:0.992157 599:0.564706 603:0.0980392 604:0.258824 605:0.498039 606:0.878431 607:0.992157 608:0.992157 609:0.909804 610:0.447059 623:0.188235 624:0.933333 625:0.992157 626:0.992157 627:0.878431 628:0.788235 629:0.788235 630:0.788235 631:0.866667 632:0.992157 633:0.992157 634:0.992157 635:0.933333 636:0.666667 637:0.235294 652:0.627451 653:0.992157 654:0.992157 655:0.992157 656:0.992157 657:0.992157 658:0.992157 659:0.992157 660:0.992157 661:0.788235 662:0.545098 663:0.109804 680:0.0235294 681:0.0666667 682:0.0666667 683:0.0666667 684:0.145098 685:0.529412 686:0.529412 687:0.529412 688:0.109804 689:0.0352941 
1 1 1 1 1 1 1 1 1 181:0.0666667 182:0.301961 183:0.301961 184:0.301961 185:0.301961 186:0.270588 205:0.0117647 206:0.286275 207:0.45098 208:0.839216 209:0.901961 210:0.996078 211:0.988235 212:0.996078 213:0.996078 214:0.984314 215:0.764706 216:0.0784314 232:0.266667 233:0.784314 234:0.996078 235:0.996078 236:0.811765 237:0.403922 238:0.403922 239:0.231373 240:0.403922 241:0.403922 242:0.976471 243:0.996078 244:0.168627 258:0.156863 259:0.745098 260:0.933333 261:0.847059 262:0.678431 263:0.352941 264:0.0235294 269:0.290196 270:0.988235 271:0.996078 272:0.168627 284:0.0901961 285:0.596078 286:0.941176 287:0.992157 288:0.501961 289:0.054902 296:0.0313725 297:0.592157 298:0.996078 299:0.74902 300:0.0196078 312:0.839216 313:0.996078 314:0.996078 315:0.560784 323:0.219608 324:0.870588 325:0.996078 326:0.933333 327:0.121569 340:0.854902 341:0.996078 342:0.505882 343:0.0941176 349:0.0745098 350:0.498039 351:0.984314 352:0.996078 353:0.996078 354:0.419608 368:0.0470588 369:0.0823529 370:0.0117647 373:0.00392157 374:0.0666667 375:0.396078 376:0.698039 377:0.933333 378:0.996078 379:0.996078 380:0.996078 381:0.996078 382:0.921569 383:0.623529 384:0.494118 385:0.0666667 401:0.317647 402:0.996078 403:0.996078 404:0.996078 405:0.996078 406:0.996078 407:0.796078 408:0.784314 409:0.866667 410:0.996078 411:0.996078 412:0.996078 413:0.952941 414:0.466667 429:0.133333 430:0.996078 431:0.87451 432:0.635294 433:0.545098 434:0.211765 435:0.0156863 437:0.0823529 438:0.211765 439:0.211765 440:0.564706 441:0.992157 442:0.941176 443:0.270588 457:0.00392157 458:0.0627451 459:0.0431373 469:0.580392 470:0.996078 471:0.972549 497:0.552941 498:0.996078 499:0.996078 525:0.552941 526:0.996078 527:0.996078 551:0.027451 552:0.282353 553:0.972549 554:0.996078 555:0.72549 569:0.231373 570:0.207843 577:0.101961 578:0.305882 579:0.764706 580:0.996078 581:0.996078 582:0.698039 583:0.0470588 597:0.721569 598:0.964706 599:0.831373 600:0.831373 601:0.831373 602:0.831373 603:0.831373 604:0.831373 605:0.894118 606:0.996078 607:0.996078 608:0.996078 609:0.364706 610:0.0509804 625:0.0470588 626:0.870588 627:0.870588 628:0.870588 629:0.870588 630:0.870588 631:0.870588 632:0.870588 633:0.870588 634:0.643137 635:0.337255 636:0.0196078 637:0.00392157 
0 0 0 1 0 0 0 1 0 150:0.0313725 151:0.0705882 152:0.113725 153:0.533333 154:0.533333 155:0.533333 156:0.533333 157:0.113725 158:0.00392157 175:0.0313725 176:0.141176 177:0.517647 178:0.768627 179:0.992157 180:0.992157 181:0.992157 182:0.992157 183:0.992157 184:0.992157 185:0.992157 186:0.588235 187:0.0588235 202:0.129412 203:0.588235 204:0.992157 205:0.992157 206:0.992157 207:0.992157 208:0.992157 209:0.960784 210:0.784314 211:0.847059 212:0.992157 213:0.992157 214:0.992157 215:0.752941 216:0.0745098 229:0.745098 230:0.894118 231:0.992157 232:0.992157 233:0.894118 234:0.713725 235:0.27451 236:0.254902 237:0.211765 239:0.0784314 240:0.254902 241:0.92549 242:0.992157 243:0.960784 244:0.25098 257:1 258:0.945098 259:0.333333 260:0.184314 261:0.121569 267:0.109804 268:0.737255 269:0.976471 270:0.992157 271:0.713725 285:0.145098 286:0.282353 294:0.403922 295:0.913725 296:0.992157 297:0.992157 298:0.756863 299:0.0470588 319:0.00392157 320:0.0705882 321:0.780392 322:0.980392 323:0.992157 324:0.992157 325:0.764706 326:0.0313725 346:0.278431 347:0.564706 348:0.992157 349:0.992157 350:0.992157 351:0.992157 352:0.992157 353:0.596078 354:0.556863 355:0.556863 356:0.254902 357:0.0705882 373:0.223529 374:0.952941 375:0.992157 376:0.992157 377:0.992157 378:0.992157 379:0.992157 380:0.992157 381:0.992157 382:0.992157 383:0.992157 384:0.992157 385:0.898039 386:0.258824 387:0.0235294 401:0.105882 402:0.709804 403:0.760784 404:0.717647 405:0.588235 406:0.439216 407:0.298039 408:0.298039 409:0.717647 410:0.760784 411:0.788235 412:0.992157 413:0.992157 414:0.992157 415:0.552941 416:0.0156863 439:0.027451 440:0.317647 441:0.768627 442:0.992157 443:0.992157 444:0.427451 469:0.160784 470:0.917647 471:0.992157 472:0.529412 498:0.368627 499:0.992157 500:0.952941 526:0.329412 527:0.992157 528:0.992157 543:0.0588235 544:0.117647 545:0.117647 546:0.0901961 553:0.0313725 554:0.619608 555:0.992157 556:0.937255 569:0.152941 570:0.596078 571:0.819608 572:0.992157 573:0.992157 574:0.760784 580:0.12549 581:0.607843 582:0.992157 583:0.992157 584:0.529412 597:0.811765 598:0.992157 599:0.992157 600:0.992157 601:0.952941 602:0.564706 606:0.133333 607:0.52549 608:0.898039 609:0.992157 610:0.992157 611:0.772549 612:0.180392 625:0.811765 626:0.992157 627:0.992157 628:0.992157 629:0.960784 630:0.788235 631:0.788235 632:0.788235 633:0.788235 634:0.894118 635:0.992157 636:0.992157 637:0.992157 638:0.584314 639:0.0313725 653:0.113725 654:0.713725 655:0.992157 656:0.992157 657:0.992157 658:0.992157 659:0.992157 660:0.992157 661:0.992157 662:0.992157 663:0.992157 664:0.733333 665:0.266667 666:0.0313725 682:0.027451 683:0.294118 684:0.529412 685:0.529412 686:0.529412 687:0.529412 688:0.529412 689:0.529412 690:0.529412 691:0.258824 692:0.0235294 
1 0 0 1 0 0 0 0.8774802855008962 0 123:0.117647 124:0.537255 125:0.572549 126:0.572549 127:0.972549 128:1 129:1 130:0.588235 131:0.572549 132:0.572549 133:0.572549 134:0.235294 149:0.647059 150:0.721569 151:0.929412 152:0.992157 153:0.992157 154:0.992157 155:0.992157 156:0.992157 157:0.992157 158:0.992157 159:0.992157 160:0.992157 161:0.992157 162:0.917647 163:0.360784 176:0.137255 177:0.937255 178:0.988235 179:0.972549 180:0.580392 181:0.545098 182:0.396078 183:0.12549 184:0.12549 185:0.12549 186:0.12549 187:0.12549 188:0.298039 189:0.796078 190:0.992157 191:0.992157 205:0.360784 206:0.32549 216:0.0705882 217:0.627451 218:0.992157 219:0.992157 243:0.219608 244:0.592157 245:0.992157 246:0.992157 247:0.858824 268:0.0117647 269:0.0431373 270:0.498039 271:0.960784 272:0.992157 273:0.988235 274:0.831373 275:0.121569 294:0.0705882 295:0.231373 296:0.705882 297:0.992157 298:0.992157 299:0.992157 300:0.992157 301:0.521569 319:0.407843 320:0.764706 321:0.764706 322:0.847059 323:0.992157 324:0.992157 325:0.992157 326:0.992157 327:0.992157 328:0.501961 329:0.00784314 346:0.176471 347:0.976471 348:0.992157 349:0.992157 350:0.992157 351:0.992157 352:0.992157 353:0.992157 354:0.992157 355:0.992157 356:0.960784 357:0.443137 358:0.0470588 374:0.0705882 375:0.682353 376:0.780392 377:0.780392 378:0.447059 379:0.537255 380:0.360784 381:0.360784 382:0.764706 383:0.92549 384:0.992157 385:0.992157 386:0.894118 387:0.0941176 411:0.145098 412:0.384314 413:0.988235 414:0.992157 415:0.482353 441:0.611765 442:0.992157 443:0.568627 468:0.0980392 469:0.980392 470:0.992157 471:0.568627 484:0.12549 485:0.368627 496:0.407843 497:0.992157 498:0.992157 499:0.227451 508:0.0196078 509:0.541176 510:0.956863 511:0.956863 512:0.968627 513:0.992157 514:0.364706 523:0.47451 524:0.972549 525:0.992157 526:0.8 527:0.0705882 536:0.545098 537:0.992157 538:0.992157 539:0.839216 540:0.423529 541:0.317647 542:0.121569 549:0.101961 550:0.662745 551:0.894118 552:0.992157 553:0.905882 554:0.0941176 564:0.996078 565:0.992157 566:0.984314 567:0.403922 575:0.207843 576:0.501961 577:0.890196 578:0.992157 579:0.992157 580:0.831373 581:0.152941 592:0.52549 593:0.992157 594:0.992157 595:0.992157 596:0.976471 597:0.596078 598:0.552941 599:0.552941 600:0.552941 601:0.552941 602:0.886275 603:0.984314 604:0.992157 605:0.992157 606:0.92549 607:0.470588 608:0.0117647 620:0.0470588 621:0.423529 622:0.843137 623:0.992157 624:0.992157 625:0.992157 626:0.992157 627:0.992157 628:0.992157 629:0.992157 630:0.992157 631:0.992157 632:0.811765 633:0.552941 634:0.137255 650:0.0666667 651:0.145098 652:0.145098 653:0.52549 654:0.831373 655:0.992157 656:0.992157 657:0.901961 658:0.568627 659:0.352941 660:0.0509804 
1 1 0 1 1 0.3893466877835213 0 1 1 125:0.2 126:0.121569 127:0.0823529 148:0.321569 149:0.796078 150:0.796078 151:0.796078 152:0.796078 153:0.992157 154:0.909804 155:0.87451 156:0.796078 157:0.717647 158:0.0784314 173:0.121569 174:0.517647 175:0.996078 176:0.992157 177:0.996078 178:0.992157 179:0.796078 180:0.796078 181:0.796078 182:0.796078 183:0.796078 184:0.87451 185:0.996078 186:0.992157 187:0.0823529 201:0.756863 202:0.988235 203:0.992157 204:0.670588 205:0.196078 206:0.196078 212:0.0784314 213:0.513725 214:0.988235 215:0.556863 229:0.639216 230:0.478431 241:0.282353 242:0.992157 243:0.796078 268:0.321569 269:0.913725 270:0.988235 271:0.635294 293:0.0431373 294:0.2 295:0.517647 296:0.992157 297:0.996078 298:0.992157 299:0.2 300:0.0392157 320:0.160784 321:0.835294 322:0.988235 323:0.992157 324:0.988235 325:0.992157 326:0.988235 327:0.992157 328:0.831373 329:0.717647 330:0.239216 345:0.443137 346:0.756863 347:0.996078 348:0.992157 349:0.996078 350:0.992157 351:0.956863 352:0.796078 353:0.4 354:0.4 355:0.796078 356:0.796078 357:0.996078 358:0.992157 359:0.678431 360:0.0392157 372:0.321569 373:0.992157 374:0.988235 375:0.992157 376:0.988235 377:0.592157 378:0.435294 379:0.156863 385:0.439216 386:0.909804 387:0.992157 388:0.356863 401:0.639216 402:0.796078 403:0.321569 414:0.321569 415:0.996078 416:0.992157 442:0.160784 443:0.992157 444:0.988235 456:0.160784 457:0.2 458:0.121569 470:0.4 471:0.996078 472:0.992157 482:0.160784 483:0.796078 484:0.952941 485:0.992157 486:0.909804 487:0.717647 488:0.4 497:0.0823529 498:0.796078 499:0.992157 500:0.831373 510:0.717647 511:0.996078 512:0.992157 513:0.956863 514:0.796078 515:0.839216 516:0.835294 517:0.717647 518:0.0784314 524:0.0823529 525:0.678431 526:0.992157 527:0.878431 528:0.0784314 538:0.239216 539:0.992157 540:0.988235 541:0.478431 543:0.0392157 544:0.0392157 551:0.321569 552:0.87451 553:0.992157 554:0.988235 555:0.478431 567:0.482353 568:0.952941 569:1 570:0.513725 571:0.160784 577:0.203922 578:0.596078 579:0.996078 580:0.992157 581:0.878431 582:0.317647 596:0.478431 597:0.992157 598:0.988235 599:0.952941 600:0.796078 601:0.796078 602:0.796078 603:0.796078 604:0.796078 605:0.913725 606:0.988235 607:0.992157 608:0.831373 609:0.0784314 625:0.243137 626:0.556863 627:0.917647 628:0.992157 629:0.996078 630:0.992157 631:0.996078 632:0.992157 633:0.796078 634:0.478431 655:0.117647 656:0.196078 657:0.196078 658:0.196078 659:0.196078 660:0.196078 
1 0 0 0 0 0 0 0 1 123:0.0392157 124:0.207843 125:0.345098 126:0.482353 127:0.521569 128:0.54902 129:0.996078 130:0.929412 131:0.521569 132:0.172549 150:0.184314 151:0.894118 152:0.992157 153:0.992157 154:0.992157 155:0.992157 156:0.996078 157:0.992157 158:0.992157 159:0.992157 160:0.890196 161:0.137255 176:0.0235294 177:0.235294 178:0.886275 179:0.992157 180:0.992157 181:0.992157 182:0.933333 183:0.85098 184:0.854902 185:0.85098 186:0.870588 187:0.992157 188:0.992157 189:0.235294 203:0.156863 204:0.713725 205:0.992157 206:0.992157 207:0.992157 208:0.839216 209:0.396078 210:0.188235 213:0.0196078 214:0.533333 215:0.992157 216:0.992157 217:0.235294 231:0.568627 232:0.992157 233:0.992157 234:0.992157 235:0.67451 236:0.054902 240:0.0117647 241:0.537255 242:0.992157 243:0.992157 244:0.709804 245:0.0666667 259:0.407843 260:0.705882 261:0.705882 262:0.368627 263:0.054902 268:0.776471 269:0.992157 270:0.992157 271:0.937255 272:0.203922 294:0.145098 295:0.788235 296:0.996078 297:0.992157 298:0.945098 299:0.309804 320:0.129412 321:0.788235 322:0.913725 323:0.992157 324:0.996078 325:0.992157 326:0.678431 327:0.384314 328:0.109804 347:0.466667 348:0.933333 349:0.992157 350:0.992157 351:0.992157 352:0.996078 353:0.992157 354:0.992157 355:0.992157 356:0.929412 357:0.901961 358:0.376471 374:0.117647 375:0.870588 376:0.992157 377:0.992157 378:0.992157 379:0.992157 380:0.996078 381:0.992157 382:0.992157 383:0.992157 384:0.992157 385:0.992157 386:0.980392 387:0.768627 388:0.27451 402:0.117647 403:0.839216 404:0.94902 405:0.768627 406:0.478431 407:0.478431 408:0.482353 409:0.203922 410:0.0705882 411:0.478431 412:0.478431 413:0.611765 414:0.964706 415:0.996078 416:0.996078 417:0.294118 442:0.145098 443:0.913725 444:0.992157 445:0.517647 455:0.129412 456:0.615686 457:0.615686 458:0.501961 459:0.0352941 471:0.854902 472:0.992157 473:0.517647 482:0.215686 483:0.854902 484:0.992157 485:0.992157 486:0.513725 487:0.0784314 498:0.0666667 499:0.882353 500:0.992157 501:0.517647 510:0.996078 511:0.992157 512:0.960784 513:0.662745 514:0.0823529 525:0.207843 526:0.807843 527:0.992157 528:0.992157 529:0.407843 538:0.996078 539:0.992157 540:0.85098 552:0.0705882 553:0.490196 554:0.992157 555:0.992157 556:0.870588 557:0.0313725 566:0.996078 567:0.992157 568:0.964706 569:0.717647 570:0.337255 571:0.239216 577:0.192157 578:0.337255 579:0.427451 580:0.85098 581:0.992157 582:0.992157 583:0.705882 584:0.152941 594:0.392157 595:0.831373 596:0.992157 597:0.992157 598:0.992157 599:0.952941 600:0.854902 601:0.854902 602:0.65098 603:0.384314 604:0.858824 605:0.933333 606:0.992157 607:0.992157 608:0.992157 609:0.992157 610:0.52549 611:0.0196078 623:0.054902 624:0.388235 625:0.647059 626:0.992157 627:0.992157 628:0.992157 629:0.992157 630:0.992157 631:0.992157 632:0.996078 633:0.992157 634:0.992157 635:0.992157 636:0.686275 637:0.431373 638:0.0196078 653:0.0117647 654:0.0431373 655:0.180392 656:0.678431 657:0.992157 658:0.992157 659:0.992157 660:0.517647 661:0.247059 662:0.0431373 663:0.0431373 664:0.0156863 
1 1 1 1 0 0 1 1 0 148:0.0509804 149:0.8 150:0.894118 151:0.207843 152:0.501961 153:0.552941 154:0.52549 155:0.784314 156:0.882353 157:1 158:0.698039 159:0.121569 175:0.0745098 176:0.760784 177:0.992157 178:0.988235 179:0.988235 180:0.988235 181:0.968627 182:0.403922 185:0.992157 186:0.988235 187:0.509804 201:0.0392157 202:0.333333 203:0.74902 204:0.988235 205:0.992157 206:0.768627 207:0.658824 208:0.266667 209:0.196078 213:0.992157 214:0.988235 215:0.658824 229:0.701961 230:0.988235 231:0.988235 232:0.988235 233:0.305882 234:0.0352941 239:0.14902 240:0.639216 241:0.992157 242:0.988235 243:0.266667 257:0.505882 258:0.992157 259:0.760784 260:0.247059 266:0.176471 267:0.698039 268:0.992157 269:0.984314 270:0.490196 285:0.0392157 286:0.329412 287:0.0745098 292:0.101961 293:0.662745 294:0.882353 295:0.988235 296:0.988235 297:0.294118 318:0.0745098 319:0.482353 320:0.870588 321:0.992157 322:0.988235 323:0.988235 324:0.792157 325:0.333333 326:0.258824 345:0.494118 346:0.905882 347:0.988235 348:0.988235 349:0.992157 350:0.988235 351:0.988235 352:0.988235 353:0.992157 354:0.964706 355:0.882353 356:0.882353 357:0.447059 358:0.14902 373:0.996078 374:0.992157 375:0.992157 376:0.945098 377:0.886275 378:0.882353 379:0.686275 380:0.882353 381:0.494118 382:0.882353 383:0.882353 384:0.933333 385:0.996078 386:0.894118 387:0.407843 388:0.0156863 401:0.796078 402:0.839216 403:0.619608 404:0.184314 412:0.14902 413:0.772549 414:0.917647 415:0.988235 416:0.403922 429:0.027451 430:0.0745098 442:0.662745 443:0.988235 444:0.894118 470:0.662745 471:0.988235 472:0.792157 497:0.0156863 498:0.701961 499:0.992157 500:0.745098 525:0.113725 526:0.988235 527:0.988235 528:0.545098 553:0.603922 554:0.988235 555:0.988235 556:0.203922 567:0.14902 568:0.443137 580:0.2 581:0.992157 582:0.988235 583:0.694118 584:0.0117647 595:0.333333 596:0.992157 597:0.752941 598:0.258824 599:0.113725 600:0.113725 605:0.0156863 606:0.211765 607:0.552941 608:0.945098 609:0.996078 610:0.917647 611:0.392157 623:0.109804 624:0.819608 625:0.992157 626:0.988235 627:0.988235 628:0.988235 629:0.662745 630:0.564706 631:0.223529 632:0.419608 633:0.701961 634:0.988235 635:0.988235 636:0.988235 637:0.721569 638:0.109804 652:0.0980392 653:0.270588 654:0.658824 655:0.803922 656:0.952941 657:0.992157 658:0.988235 659:0.988235 660:0.988235 661:0.956863 662:0.658824 663:0.509804 664:0.219608 683:0.0509804 684:0.0980392 685:0.54902 686:0.545098 687:0.545098 688:0.545098 689:0.0980392 
0 0 0 0 0 0 0 1 1 150:0.0196078 151:0.0509804 152:0.254902 153:0.517647 154:0.545098 155:0.992157 156:0.992157 157:0.992157 158:0.764706 159:0.992157 160:0.835294 161:0.341176 162:0.00784314 175:0.0196078 176:0.211765 177:0.568627 178:0.709804 179:0.988235 180:0.988235 181:0.988235 182:0.992157 183:0.988235 184:0.988235 185:0.988235 186:0.988235 187:0.988235 188:0.988235 189:0.988235 190:0.403922 191:0.00784314 200:0.00784314 201:0.145098 202:0.439216 203:0.686275 204:0.988235 205:0.988235 206:0.941176 207:0.847059 208:0.847059 209:0.396078 210:0.376471 211:0.376471 212:0.376471 213:0.376471 214:0.376471 215:0.376471 216:0.87451 217:0.988235 218:0.988235 219:0.0431373 228:0.678431 229:0.988235 230:0.988235 231:0.952941 232:0.686275 233:0.329412 234:0.219608 243:0.282353 244:0.929412 245:0.988235 246:0.905882 247:0.0352941 256:0.992157 257:0.988235 258:0.772549 259:0.227451 271:0.756863 272:0.988235 273:0.988235 274:0.45098 284:0.486275 285:0.435294 286:0.0901961 297:0.054902 298:0.4 299:0.933333 300:0.988235 301:0.988235 302:0.0901961 324:0.0509804 325:0.458824 326:0.988235 327:0.988235 328:0.988235 329:0.521569 330:0.0196078 351:0.219608 352:0.690196 353:0.988235 354:0.988235 355:0.988235 356:0.521569 357:0.0196078 378:0.454902 379:0.94902 380:0.988235 381:0.988235 382:0.886275 383:0.203922 384:0.0196078 404:0.431373 405:0.698039 406:0.992157 407:0.988235 408:0.988235 409:0.988235 410:0.301961 430:0.176471 431:0.929412 432:0.992157 433:0.992157 434:1 435:0.972549 436:0.992157 437:0.992157 438:0.992157 439:0.992157 440:0.454902 441:0.0313725 458:0.333333 459:0.988235 460:0.988235 461:0.945098 462:0.87451 463:0.223529 464:0.490196 465:0.894118 466:0.917647 467:0.988235 468:0.988235 469:0.827451 470:0.054902 486:0.12549 487:0.552941 488:0.419608 489:0.196078 494:0.0901961 495:0.733333 496:0.960784 497:0.988235 498:0.447059 499:0.00784314 524:0.490196 525:0.988235 526:0.988235 527:0.0431373 552:0.333333 553:0.988235 554:0.988235 555:0.384314 580:0.470588 581:0.988235 582:0.988235 583:0.156863 594:0.501961 595:0.713725 596:0.333333 597:0.0784314 606:0.0823529 607:0.694118 608:0.952941 609:0.988235 610:0.486275 611:0.0117647 621:0.0823529 622:0.937255 623:0.988235 624:0.988235 625:0.882353 626:0.85098 627:0.85098 628:0.647059 629:0.380392 630:0.384314 631:0.380392 632:0.45098 633:0.85098 634:0.882353 635:0.988235 636:0.988235 637:0.486275 638:0.0156863 649:0.0117647 650:0.388235 651:0.847059 652:0.988235 653:0.988235 654:0.988235 655:0.988235 656:0.988235 657:0.988235 658:0.992157 659:0.988235 660:0.988235 661:0.988235 662:0.988235 663:0.988235 664:0.486275 665:0.0156863 679:0.0313725 680:0.0431373 681:0.407843 682:0.513725 683:0.513725 684:0.945098 685:0.988235 686:0.992157 687:0.717647 688:0.513725 689:0.427451 690:0.0431373 691:0.0431373 692:0.0117647 
1 1 1 1 1 1 1 1 1 155:0.0117647 156:0.462745 157:0.992157 158:0.992157 159:0.580392 182:0.0862745 183:0.666667 184:0.988235 185:0.988235 186:0.988235 187:0.784314 188:0.0862745 210:0.780392 211:0.992157 212:0.988235 213:0.988235 214:0.988235 215:0.988235 216:0.780392 236:0.101961 237:0.733333 238:0.972549 239:0.992157 240:0.988235 241:0.988235 242:0.988235 243:0.988235 244:0.901961 264:0.682353 265:0.988235 266:0.988235 267:0.992157 268:0.988235 269:0.988235 270:0.988235 271:0.988235 272:0.984314 273:0.329412 291:0.184314 292:0.992157 293:0.992157 294:0.992157 295:0.658824 296:0.372549 297:0.027451 298:0.831373 299:0.992157 300:0.905882 319:0.0666667 320:0.686275 321:0.807843 322:0.4 324:0.0352941 325:0.607843 326:0.988235 327:0.988235 328:0.529412 351:0.027451 352:0.607843 353:0.988235 354:0.988235 355:0.658824 378:0.168627 379:0.423529 380:0.988235 381:0.988235 382:0.854902 383:0.545098 404:0.12549 405:0.454902 406:0.901961 407:0.992157 408:0.988235 409:0.988235 410:0.956863 411:0.286275 430:0.133333 431:0.541176 432:0.870588 433:0.992157 434:0.992157 435:1 436:0.992157 437:0.992157 438:0.992157 439:0.992157 440:0.25098 457:0.576471 458:0.992157 459:0.988235 460:0.988235 461:0.988235 462:0.905882 463:0.564706 464:0.360784 465:0.482353 466:0.87451 467:0.988235 468:0.533333 484:0.266667 485:0.964706 486:0.992157 487:0.988235 488:0.666667 489:0.270588 490:0.145098 494:0.690196 495:0.988235 496:0.572549 512:0.231373 513:0.956863 514:0.631373 515:0.341176 516:0.0509804 521:0.392157 522:0.956863 523:0.988235 524:0.454902 541:0.0823529 548:0.372549 549:0.964706 550:0.988235 551:0.784314 552:0.0431373 574:0.0862745 575:0.584314 576:0.992157 577:0.992157 578:0.917647 579:0.286275 596:0.0666667 597:0.184314 600:0.0509804 601:0.34902 602:0.956863 603:0.992157 604:0.988235 605:0.941176 606:0.145098 624:0.486275 625:0.988235 626:0.27451 627:0.556863 628:0.796078 629:0.988235 630:0.988235 631:0.992157 632:0.733333 633:0.196078 652:0.443137 653:0.988235 654:0.992157 655:0.988235 656:0.988235 657:0.988235 658:0.988235 659:0.384314 660:0.0666667 680:0.0352941 681:0.294118 682:0.992157 683:0.988235 684:0.866667 685:0.376471 686:0.0862745 
0 0 1 0 0 0 0 1 0 153:0.164706 154:0.603922 155:0.996078 156:1 157:0.996078 158:0.733333 159:0.0235294 179:0.196078 180:0.611765 181:0.945098 182:0.992157 183:0.992157 184:0.992157 185:0.992157 186:0.992157 187:0.0509804 206:0.207843 207:0.917647 208:0.992157 209:0.992157 210:0.992157 211:0.992157 212:0.992157 213:0.992157 214:0.992157 215:0.333333 216:0.0392157 234:0.592157 235:0.992157 236:0.992157 237:0.992157 238:0.992157 239:0.992157 240:0.992157 241:0.992157 242:0.992157 243:0.992157 244:0.784314 245:0.278431 262:0.223529 263:0.858824 264:0.858824 265:0.858824 266:0.858824 267:0.858824 268:0.858824 269:0.858824 270:0.92549 271:0.992157 272:0.992157 273:0.74902 297:0.00392157 298:0.513725 299:0.992157 300:0.992157 301:0.74902 324:0.337255 325:0.52549 326:0.992157 327:0.992157 328:0.823529 329:0.364706 351:0.317647 352:0.796078 353:0.992157 354:0.992157 355:0.992157 356:0.435294 376:0.345098 377:0.352941 378:0.788235 379:0.964706 380:0.992157 381:0.992157 382:0.992157 383:0.443137 384:0.0156863 402:0.192157 403:0.807843 404:0.988235 405:0.992157 406:0.992157 407:0.992157 408:0.992157 409:0.992157 410:0.992157 411:0.596078 412:0.0352941 429:0.203922 430:0.886275 431:0.992157 432:0.992157 433:0.992157 434:0.992157 435:0.956863 436:0.92549 437:0.992157 438:0.992157 439:0.992157 440:0.235294 457:0.309804 458:0.94902 459:0.992157 460:0.65098 461:0.34902 462:0.34902 463:0.282353 464:0.227451 465:0.360784 466:0.937255 467:0.992157 468:0.878431 469:0.141176 486:0.258824 487:0.427451 488:0.0117647 494:0.490196 495:0.992157 496:0.992157 497:0.211765 521:0.0156863 522:0.733333 523:0.992157 524:0.992157 525:0.211765 548:0.105882 549:0.945098 550:0.992157 551:0.992157 552:0.466667 553:0.0117647 574:0.0901961 575:0.717647 576:0.878431 577:0.992157 578:0.992157 579:0.639216 580:0.0196078 600:0.105882 601:0.435294 602:0.839216 603:0.992157 604:0.992157 605:0.992157 606:0.87451 607:0.152941 624:0.533333 625:0.337255 626:0.164706 627:0.443137 628:0.827451 629:0.992157 630:0.992157 631:0.992157 632:0.886275 633:0.521569 634:0.152941 652:0.709804 653:0.992157 654:0.992157 655:0.992157 656:0.992157 657:0.992157 658:0.780392 659:0.376471 660:0.133333 680:0.101961 681:0.819608 682:0.992157 683:0.992157 684:0.992157 685:0.509804 686:0.0862745 
0 1 1 1 1 1 1 1 0 154:0.133333 155:0.623529 156:0.992157 157:0.458824 158:0.0117647 181:0.576471 182:0.992157 183:0.988235 184:0.988235 185:0.988235 186:0.458824 207:0.2 208:0.721569 209:0.964706 210:0.992157 211:0.988235 212:0.988235 213:0.988235 214:0.988235 215:0.454902 235:0.27451 236:0.988235 237:0.988235 238:0.992157 239:0.988235 240:0.988235 241:0.988235 242:0.988235 243:0.901961 263:0.14902 264:0.909804 265:0.988235 266:0.537255 267:0.537255 268:0.537255 269:0.909804 270:0.988235 271:0.901961 297:0.815686 298:0.992157 299:0.905882 324:0.258824 325:0.92549 326:0.988235 327:0.615686 351:0.258824 352:0.917647 353:0.988235 354:0.866667 355:0.12549 378:0.407843 379:0.92549 380:0.988235 381:0.988235 382:0.537255 404:0.372549 405:0.862745 406:0.992157 407:0.988235 408:0.988235 409:0.988235 410:0.741176 411:0.207843 430:0.141176 431:0.666667 432:0.992157 433:0.992157 434:1 435:0.992157 436:0.952941 437:0.992157 438:0.992157 439:0.905882 458:0.631373 459:0.988235 460:0.988235 461:0.988235 462:0.854902 463:0.360784 464:0.196078 465:0.792157 466:0.988235 467:0.917647 468:0.0666667 486:0.254902 487:0.792157 488:0.890196 489:0.509804 490:0.12549 493:0.0980392 494:0.92549 495:0.992157 496:0.360784 515:0.0509804 516:0.113725 522:0.901961 523:0.992157 524:0.360784 549:0.533333 550:0.980392 551:0.952941 552:0.196078 571:0.027451 572:0.0196078 575:0.0196078 576:0.215686 577:0.913725 578:0.992157 579:0.658824 595:0.0862745 599:0.356863 600:0.466667 602:0.101961 603:0.533333 604:0.988235 605:0.988235 606:0.988235 607:0.164706 623:0.329412 626:0.0509804 627:0.796078 628:0.890196 629:0.513725 630:0.870588 631:0.988235 632:0.988235 633:0.988235 634:0.533333 654:0.0352941 655:0.768627 656:0.988235 657:0.988235 658:0.992157 659:0.988235 660:0.890196 661:0.258824 662:0.0156863 683:0.188235 684:0.909804 685:0.988235 686:0.745098 687:0.458824 688:0.0627451 
1 1 1 1 0.2082498073501393 1 1 1 1 154:0.027451 155:0.458824 156:0.945098 157:0.752941 158:0.235294 181:0.12549 182:0.588235 183:0.988235 184:0.988235 185:0.992157 186:0.917647 187:0.662745 188:0.466667 189:0.101961 208:0.298039 209:0.898039 210:0.988235 211:0.988235 212:0.988235 213:0.992157 214:0.988235 215:0.988235 216:0.988235 217:0.443137 236:0.882353 237:0.992157 238:0.988235 239:0.988235 240:0.988235 241:0.992157 242:0.988235 243:0.988235 244:0.988235 245:0.835294 264:0.592157 265:0.984314 266:0.784314 267:0.443137 268:0.443137 269:0.396078 270:0.12549 271:0.898039 272:0.992157 273:0.639216 293:0.294118 297:0.027451 298:0.588235 299:0.988235 300:0.988235 301:0.345098 325:0.603922 326:0.988235 327:0.988235 328:0.498039 352:0.788235 353:0.992157 354:0.988235 355:0.839216 356:0.0588235 377:0.0156863 378:0.211765 379:0.698039 380:0.992157 381:1 382:0.819608 383:0.0980392 403:0.0745098 404:0.223529 405:0.701961 406:0.988235 407:0.988235 408:0.988235 409:0.623529 410:0.109804 429:0.0392157 430:0.431373 431:0.843137 432:0.988235 433:0.992157 434:0.988235 435:0.988235 436:0.988235 437:0.588235 457:0.309804 458:0.988235 459:0.988235 460:0.988235 461:0.992157 462:0.988235 463:0.988235 464:0.988235 465:0.980392 466:0.686275 485:0.505882 486:0.992157 487:0.956863 488:0.686275 489:0.396078 492:0.592157 493:1 494:0.796078 495:0.027451 513:0.0392157 514:0.329412 515:0.219608 521:0.992157 522:0.988235 523:0.509804 549:0.992157 550:0.988235 551:0.658824 568:0.396078 569:0.788235 576:0.2 577:0.992157 578:0.988235 579:0.462745 596:0.886275 597:0.898039 598:0.0392157 603:0.235294 604:0.945098 605:1 606:0.870588 607:0.0980392 624:0.784314 625:0.992157 626:0.670588 627:0.223529 628:0.223529 629:0.223529 630:0.321569 631:0.917647 632:0.988235 633:0.992157 634:0.670588 652:0.0980392 653:0.647059 654:0.988235 655:0.988235 656:0.988235 657:0.992157 658:0.988235 659:0.988235 660:0.839216 661:0.611765 662:0.0745098 681:0.109804 682:0.545098 683:0.694118 684:0.792157 685:0.992157 686:0.988235 687:0.643137 688:0.109804 
0 0 1 0 0 0 1 0 0 153:0.121569 154:0.360784 155:0.839216 156:0.992157 157:0.556863 180:0.321569 181:0.913725 182:0.988235 183:0.992157 184:0.988235 185:0.87451 186:0.635294 187:0.321569 207:0.2 208:0.992157 209:0.996078 210:0.992157 211:0.996078 212:0.992157 213:0.996078 214:0.992157 215:1 216:0.835294 235:0.0392157 236:0.67451 237:0.992157 238:0.988235 239:0.913725 240:0.752941 241:0.592157 242:0.752941 243:0.992157 244:0.988235 245:0.321569 270:0.482353 271:1 272:0.752941 297:0.482353 298:0.952941 299:0.992157 300:0.27451 322:0.0823529 323:0.2 324:0.678431 325:0.996078 326:0.992157 327:0.796078 328:0.0784314 348:0.321569 349:0.796078 350:0.87451 351:0.992157 352:0.988235 353:0.992157 354:0.670588 355:0.0784314 375:0.282353 376:0.992157 377:0.996078 378:0.992157 379:0.996078 380:0.992157 381:0.996078 382:0.439216 403:0.360784 404:0.909804 405:0.913725 406:0.592157 407:0.592157 408:0.752941 409:0.992157 410:0.592157 436:0.160784 437:0.996078 438:0.835294 465:0.992157 466:0.988235 492:0.243137 493:0.996078 494:0.992157 519:0.0823529 520:0.635294 521:0.992157 522:0.831373 547:0.360784 548:0.913725 549:0.996078 550:0.356863 575:0.756863 576:0.988235 577:0.835294 578:0.0392157 592:0.482353 593:0.360784 594:0.0392157 600:0.0823529 601:0.203922 602:0.678431 603:0.996078 604:0.913725 605:0.482353 620:0.635294 621:0.992157 622:0.67451 623:0.4 624:0.4 625:0.160784 626:0.321569 627:0.639216 628:0.87451 629:0.992157 630:0.988235 631:0.992157 632:0.27451 649:0.482353 650:0.796078 651:1 652:0.992157 653:0.996078 654:0.992157 655:0.996078 656:0.992157 657:0.996078 658:0.835294 679:0.196078 680:0.513725 681:0.592157 682:0.909804 683:0.752941 684:0.592157 685:0.196078 686:0.0392157 
0 1 1 1 0 1 1 0.6115362289244798 0 132:0.0588235 133:0.231373 158:0.0117647 159:0.27451 160:0.760784 161:0.984314 162:0.74902 184:0.027451 185:0.384314 186:0.72549 187:0.996078 188:0.996078 189:0.996078 190:0.996078 211:0.247059 212:0.886275 213:0.996078 214:0.996078 215:0.996078 216:0.996078 217:0.996078 218:0.996078 238:0.686275 239:0.980392 240:0.996078 241:0.996078 242:0.909804 243:0.686275 244:0.560784 245:0.996078 246:0.996078 266:0.694118 267:0.996078 268:0.835294 269:0.34902 270:0.101961 271:0.027451 272:0.552941 273:0.996078 274:0.968627 294:0.0470588 295:0.54902 296:0.333333 298:0.027451 299:0.690196 300:0.996078 301:0.956863 302:0.419608 321:0.141176 322:0.603922 323:0.988235 324:0.984314 325:0.960784 326:0.964706 327:0.996078 328:0.996078 329:0.580392 348:0.0431373 349:0.945098 350:0.996078 351:0.996078 352:0.996078 353:0.996078 354:0.996078 355:0.996078 356:0.623529 357:0.0235294 376:0.372549 377:0.996078 378:0.996078 379:0.996078 380:0.996078 381:0.996078 382:0.996078 383:0.996078 384:0.403922 405:0.741176 406:0.835294 407:0.737255 408:0.737255 409:0.533333 410:0.882353 411:1 412:0.407843 434:0.0431373 438:0.811765 439:0.996078 440:0.403922 454:0.027451 455:0.00392157 465:0.0901961 466:0.886275 467:0.996078 468:0.392157 480:0.321569 481:0.662745 482:0.886275 483:0.321569 493:0.662745 494:0.996078 495:0.894118 496:0.0235294 507:0.92549 508:0.988235 509:0.85098 510:0.560784 511:0.0588235 520:0.482353 521:0.988235 522:0.996078 523:0.592157 535:0.996078 536:0.745098 537:0.0588235 546:0.121569 547:0.733333 548:0.933333 549:0.996078 550:0.741176 551:0.054902 563:0.996078 564:0.996078 565:0.764706 566:0.458824 567:0.14902 571:0.0392157 572:0.337255 573:0.568627 574:0.964706 575:0.996078 576:0.996078 577:0.482353 578:0.054902 591:0.270588 592:0.929412 593:0.996078 594:0.996078 595:0.976471 596:0.960784 597:0.960784 598:0.960784 599:0.964706 600:0.996078 601:0.996078 602:0.996078 603:0.807843 604:0.294118 605:0.00392157 620:0.129412 621:0.435294 622:0.513725 623:0.858824 624:0.882353 625:0.882353 626:0.882353 627:0.882353 628:0.882353 629:0.65098 630:0.188235 631:0.0352941 
0.03514684114932232 0 0 1 0 0 0 1 1 129:0.227451 130:0.886275 131:0.968627 132:0.270588 155:0.0627451 156:0.509804 157:0.984314 158:0.996078 159:0.996078 160:0.937255 161:0.262745 182:0.215686 183:0.792157 184:0.996078 185:0.996078 186:0.996078 187:0.996078 188:0.996078 189:0.941176 209:0.454902 210:0.839216 211:0.996078 212:0.996078 213:0.996078 214:0.862745 215:0.996078 216:0.996078 217:0.956863 236:0.0196078 237:0.968627 238:0.996078 239:0.870588 240:0.490196 241:0.101961 242:0.372549 243:0.996078 244:0.996078 245:0.705882 264:0.00784314 265:0.552941 266:0.552941 267:0.129412 269:0.0352941 270:0.796078 271:1 272:0.921569 273:0.101961 297:0.67451 298:0.996078 299:0.992157 300:0.517647 323:0.0431373 324:0.552941 325:0.976471 326:0.996078 327:0.647059 348:0.0117647 349:0.27451 350:0.756863 351:0.862745 352:0.996078 353:0.996078 354:0.996078 355:0.172549 374:0.0156863 375:0.207843 376:0.713725 377:0.996078 378:0.996078 379:0.996078 380:0.996078 381:0.996078 382:0.996078 383:0.505882 402:0.223529 403:0.996078 404:0.996078 405:0.996078 406:0.996078 407:0.933333 408:0.301961 409:0.623529 410:0.996078 411:0.835294 430:0.407843 431:0.996078 432:0.996078 433:0.964706 434:0.67451 435:0.0235294 437:0.466667 438:0.996078 439:0.917647 458:0.0431373 459:0.792157 460:0.65098 461:0.352941 465:0.12549 466:0.996078 467:0.917647 487:0.0235294 493:0.556863 494:0.996078 495:0.698039 520:0.109804 521:0.956863 522:0.996078 523:0.505882 539:0.0627451 540:0.462745 541:0.494118 542:0.0588235 547:0.0823529 548:0.835294 549:0.996078 550:0.811765 551:0.0941176 566:0.486275 567:0.913725 568:0.996078 569:0.921569 570:0.0901961 574:0.372549 575:0.72549 576:0.996078 577:0.913725 578:0.0941176 594:0.960784 595:0.996078 596:0.788235 597:0.266667 598:0.0431373 599:0.145098 600:0.462745 601:0.858824 602:0.968627 603:0.996078 604:0.984314 605:0.337255 622:0.411765 623:0.937255 624:0.996078 625:0.996078 626:0.996078 627:0.996078 628:0.996078 629:0.996078 630:0.996078 631:0.8 632:0.239216 651:0.439216 652:0.964706 653:1 654:0.996078 655:0.996078 656:0.988235 657:0.588235 658:0.431373 659:0.0784314 
0 0 0 1 0 0 0 0 0 128:0.360784 129:0.992157 130:0.996078 131:0.356863 155:0.482353 156:0.992157 157:0.988235 158:0.992157 159:0.196078 181:0.160784 182:0.678431 183:0.992157 184:0.996078 185:0.992157 186:0.996078 187:0.992157 188:0.4 208:0.243137 209:0.87451 210:0.992157 211:0.988235 212:0.992157 213:0.988235 214:0.992157 215:0.988235 216:0.796078 217:0.0784314 236:0.517647 237:0.992157 238:0.996078 239:0.992157 240:0.796078 241:0.478431 242:0.482353 243:0.952941 244:1 245:0.278431 264:0.282353 265:0.909804 266:0.356863 267:0.196078 270:0.482353 271:0.952941 272:0.913725 273:0.196078 298:0.996078 299:0.992157 300:0.482353 323:0.160784 324:0.4 325:0.717647 326:0.992157 327:0.988235 328:0.156863 349:0.482353 350:0.839216 351:0.992157 352:0.996078 353:0.992157 354:0.996078 355:0.992157 356:0.321569 376:0.796078 377:0.952941 378:0.992157 379:0.988235 380:0.992157 381:0.988235 382:0.992157 383:0.988235 384:0.796078 403:0.639216 404:0.996078 405:0.992157 406:0.996078 407:0.992157 408:0.796078 409:0.239216 410:0.360784 411:0.992157 412:0.996078 413:0.196078 431:0.478431 432:0.992157 433:0.988235 434:0.752941 435:0.592157 436:0.0784314 438:0.121569 439:0.909804 440:0.992157 441:0.356863 460:0.4 461:0.0784314 466:0.282353 467:0.992157 468:0.996078 469:0.196078 494:0.756863 495:0.988235 496:0.752941 497:0.117647 521:0.321569 522:0.996078 523:0.992157 524:0.321569 538:0.0823529 539:0.556863 548:0.243137 549:0.87451 550:0.992157 551:0.670588 566:0.6 567:0.992157 568:0.0823529 574:0.121569 575:0.678431 576:0.996078 577:0.992157 578:0.796078 579:0.0784314 594:0.439216 595:0.988235 596:0.796078 597:0.4 598:0.160784 600:0.243137 601:0.717647 602:0.913725 603:0.988235 604:0.992157 605:0.988235 606:0.0784314 622:0.0823529 623:0.796078 624:1 625:0.992157 626:0.996078 627:0.992157 628:0.996078 629:0.992157 630:0.996078 631:0.752941 632:0.321569 651:0.0784314 652:0.439216 653:0.592157 654:0.592157 655:0.909804 656:0.992157 657:0.831373 658:0.356863 659:0.117647 
0 0 0 0 0 0 0 0.5187990987361685 0 128:0.2 129:0.756863 130:0.917647 131:0.117647 155:0.321569 156:0.913725 157:0.988235 158:0.992157 159:0.513725 181:0.0823529 182:0.517647 183:0.992157 184:0.996078 185:0.992157 186:0.996078 187:0.992157 188:0.678431 189:0.0392157 208:0.0823529 209:0.796078 210:0.992157 211:0.988235 212:0.992157 213:0.988235 214:0.992157 215:0.988235 216:0.992157 217:0.356863 236:0.996078 237:0.992157 238:0.996078 239:0.67451 240:0.160784 243:0.796078 244:1 245:0.592157 264:0.992157 265:0.988235 266:0.356863 267:0.0392157 270:0.160784 271:0.952941 272:0.992157 273:0.27451 292:0.243137 293:0.0784314 298:0.678431 299:0.992157 300:0.717647 322:0.243137 323:0.4 324:0.321569 325:0.482353 326:0.992157 327:0.988235 328:0.4 349:0.321569 350:0.996078 351:0.992157 352:0.996078 353:0.992157 354:0.996078 355:0.835294 376:0.0823529 377:0.87451 378:0.992157 379:0.988235 380:0.992157 381:0.988235 382:0.913725 383:0.117647 404:0.2 405:0.992157 406:0.996078 407:0.992157 408:0.996078 409:0.992157 410:0.996078 411:0.513725 432:0.0392157 433:0.831373 434:0.992157 435:0.831373 436:0.356863 437:0.356863 438:0.992157 439:0.988235 440:0.160784 466:0.996078 467:0.992157 468:0.4 494:0.992157 495:0.988235 496:0.4 512:0.160784 521:0.4 522:0.996078 523:0.992157 524:0.160784 539:0.482353 540:0.87451 541:0.0784314 548:0.160784 549:0.87451 550:0.992157 551:0.831373 566:0.282353 567:0.992157 568:0.321569 574:0.0431373 575:0.360784 576:0.996078 577:0.992157 578:0.956863 579:0.156863 594:0.596078 595:0.988235 596:0.160784 601:0.321569 602:0.678431 603:0.988235 604:0.992157 605:0.988235 606:0.317647 622:0.517647 623:0.992157 624:1 625:0.67451 626:0.6 627:0.596078 628:0.996078 629:0.992157 630:0.917647 631:0.913725 632:0.4 633:0.239216 650:0.0392157 651:0.513725 652:0.835294 653:0.988235 654:0.992157 655:0.988235 656:0.992157 657:0.988235 658:0.278431 659:0.117647 
1 1 1 1 1 1 1 1 1 178:0.145098 179:0.552941 180:0.611765 181:0.611765 182:0.611765 183:0.85098 184:0.964706 185:0.498039 186:0.0196078 206:0.937255 207:0.992157 208:0.992157 209:0.992157 210:0.992157 211:0.996078 212:0.992157 213:0.992157 214:0.4 234:0.87451 235:0.992157 236:0.992157 237:0.992157 238:0.992157 239:0.996078 240:0.992157 241:0.992157 242:0.458824 262:0.552941 263:0.992157 264:0.992157 265:0.992157 266:0.843137 267:0.996078 268:0.992157 269:0.992157 270:0.458824 290:0.054902 291:0.72549 292:0.992157 293:0.992157 294:0.992157 295:0.996078 296:0.992157 297:0.992157 298:0.6 319:0.0313725 320:0.529412 321:0.0313725 322:0.619608 323:1 324:0.996078 325:0.717647 326:0.0313725 349:0.192157 350:0.956863 351:0.996078 352:0.984314 353:0.282353 376:0.333333 377:0.968627 378:0.992157 379:0.996078 380:0.647059 403:0.341176 404:0.968627 405:0.992157 406:0.992157 407:0.996078 408:0.780392 409:0.270588 410:0.0117647 430:0.180392 431:0.956863 432:0.992157 433:0.992157 434:0.992157 435:0.996078 436:0.992157 437:0.992157 438:0.513725 458:0.180392 459:0.960784 460:0.996078 461:0.996078 462:0.905882 463:0.819608 464:0.996078 465:0.996078 466:0.996078 467:0.317647 487:0.627451 488:0.796078 489:0.32549 490:0.0941176 491:0.0352941 492:0.509804 493:0.992157 494:0.992157 495:0.607843 520:0.0235294 521:0.780392 522:0.992157 523:0.607843 549:0.686275 550:0.992157 551:0.607843 577:0.686275 578:0.992157 579:0.607843 600:0.0745098 601:0.254902 602:0.0901961 604:0.137255 605:0.878431 606:0.996078 607:0.607843 628:0.337255 629:0.835294 631:0.137255 632:0.85098 633:0.992157 634:0.980392 635:0.266667 656:0.686275 657:0.945098 658:0.541176 659:0.878431 660:0.992157 661:0.992157 662:0.572549 684:0.686275 685:0.992157 686:0.992157 687:0.996078 688:0.992157 689:0.764706 690:0.0627451 712:0.423529 713:0.815686 714:0.992157 715:0.996078 716:0.960784 717:0.188235 
0 0 0 0 0 1 0 1 0 153:0.513725 154:0.627451 155:0.847059 156:0.996078 157:1 158:0.807843 159:0.12549 180:0.0980392 181:0.905882 182:0.996078 183:0.996078 184:0.996078 185:0.996078 186:0.996078 187:0.807843 208:0.0431373 209:0.823529 210:0.996078 211:0.956863 212:0.960784 213:0.996078 214:0.996078 215:0.847059 237:0.027451 238:0.333333 239:0.0117647 240:0.223529 241:0.996078 242:0.996078 243:0.847059 268:0.482353 269:0.996078 270:0.996078 271:0.639216 295:0.294118 296:0.847059 297:0.996078 298:0.882353 299:0.129412 322:0.498039 323:0.984314 324:0.996078 325:0.996078 326:0.356863 347:0.0666667 348:0.564706 349:0.756863 350:0.984314 351:0.996078 352:0.968627 353:0.501961 375:0.298039 376:0.996078 377:0.996078 378:0.996078 379:0.996078 380:0.756863 381:0.0705882 403:0.188235 404:0.968627 405:0.996078 406:0.996078 407:0.996078 408:0.996078 409:0.898039 410:0.141176 432:0.345098 433:0.372549 434:0.372549 435:0.588235 436:0.862745 437:1 438:0.533333 439:0.0313725 464:0.411765 465:0.956863 466:0.996078 467:0.301961 493:0.737255 494:0.996078 495:0.478431 514:0.113725 521:0.737255 522:0.996078 523:0.478431 542:0.745098 543:0.376471 548:0.2 549:0.882353 550:0.996078 551:0.137255 557:0.12549 558:0.0823529 569:0.0117647 570:0.792157 571:0.831373 572:0.0352941 575:0.266667 576:0.913725 577:0.996078 578:0.882353 579:0.0627451 585:0.12549 586:0.0823529 597:0.101961 598:0.921569 599:0.996078 600:0.196078 602:0.239216 603:0.72549 604:0.996078 605:0.996078 606:0.356863 626:0.556863 627:0.996078 628:0.905882 629:0.756863 630:0.984314 631:0.996078 632:0.996078 633:0.552941 654:0.231373 655:0.996078 656:0.996078 657:0.996078 658:0.996078 659:0.968627 660:0.52549 661:0.0392157 682:0.0117647 683:0.478431 684:0.996078 685:0.996078 686:0.870588 687:0.34902 
0 0.5167625554692094 1 0 0 1 0 1 0 151:0.294118 152:0.807843 153:0.823529 154:0.662745 155:0.662745 156:0.345098 178:0.568627 179:0.996078 180:0.996078 181:0.996078 182:0.996078 183:0.996078 184:0.996078 185:0.788235 186:0.0666667 206:0.576471 207:0.996078 208:0.741176 209:0.419608 210:0.541176 211:0.709804 212:0.945098 213:0.996078 214:0.545098 234:0.0313725 235:0.0509804 236:0.00784314 240:0.4 241:0.996078 242:0.878431 268:0.137255 269:0.996078 270:0.894118 296:0.333333 297:0.996078 298:0.815686 323:0.109804 324:0.705882 325:0.996078 326:0.556863 347:0.0784314 348:0.517647 349:0.839216 350:0.882353 351:0.941176 352:0.996078 353:0.972549 354:0.741176 355:0.160784 376:0.768627 377:0.996078 378:0.996078 379:0.996078 380:0.972549 381:0.486275 403:0.188235 404:0.980392 405:0.996078 406:0.996078 407:0.996078 408:0.768627 409:0.0352941 431:0.113725 432:0.803922 433:0.780392 434:0.792157 435:0.972549 436:0.996078 437:0.486275 463:0.552941 464:0.996078 465:0.87451 466:0.105882 491:0.152941 492:0.913725 493:0.996078 494:0.490196 520:0.815686 521:0.996078 522:0.556863 548:0.815686 549:0.996078 550:0.556863 571:0.368627 572:0.0705882 575:0.227451 576:0.890196 577:0.996078 578:0.443137 598:0.176471 599:0.972549 600:0.596078 601:0.117647 602:0.560784 603:0.952941 604:0.996078 605:0.952941 606:0.227451 626:0.239216 627:0.996078 628:1 629:0.996078 630:0.996078 631:0.996078 632:0.980392 633:0.501961 654:0.239216 655:0.996078 656:1 657:0.996078 658:0.988235 659:0.760784 660:0.160784 682:0.160784 683:0.964706 684:0.996078 685:0.639216 686:0.156863 
0 0 0 0 0 0.2471467007584074 0 0 0 151:0.027451 152:0.376471 153:0.764706 154:0.996078 155:0.980392 156:0.54902 157:0.0901961 178:0.262745 179:0.854902 180:0.996078 181:0.996078 182:0.996078 183:0.87451 184:0.964706 185:0.811765 186:0.054902 205:0.156863 206:0.996078 207:0.996078 208:0.996078 209:0.752941 210:0.301961 212:0.498039 213:0.996078 214:0.380392 233:0.313725 234:0.996078 235:0.964706 236:0.435294 237:0.0156863 240:0.439216 241:0.996078 242:0.509804 261:0.117647 262:0.996078 263:0.576471 268:0.631373 269:0.996078 270:0.54902 290:0.52549 291:0.254902 295:0.415686 296:0.996078 297:0.996078 298:0.321569 321:0.0313725 322:0.419608 323:0.996078 324:0.996078 325:0.717647 326:0.0313725 348:0.152941 349:0.854902 350:0.996078 351:0.996078 352:0.956863 353:0.188235 376:0.188235 377:0.996078 378:0.996078 379:0.996078 380:0.996078 381:0.737255 382:0.0705882 404:0.0117647 405:0.415686 406:0.682353 407:0.47451 408:0.643137 409:0.996078 410:0.607843 436:0.0392157 437:0.752941 438:0.996078 439:0.278431 465:0.462745 466:0.996078 467:0.701961 493:0.188235 494:0.996078 495:0.839216 521:0.188235 522:0.996078 523:0.996078 549:0.482353 550:0.996078 551:0.996078 570:0.180392 571:0.211765 576:0.0666667 577:0.784314 578:0.996078 579:0.568627 598:0.509804 599:0.92549 600:0.380392 601:0.0156863 603:0.0666667 604:0.780392 605:0.996078 606:0.964706 607:0.227451 626:0.0509804 627:0.890196 628:0.996078 629:0.576471 630:0.384314 631:0.784314 632:0.996078 633:0.996078 634:0.435294 655:0.231373 656:0.94902 657:0.996078 658:0.996078 659:1 660:0.996078 661:0.576471 662:0.0156863 684:0.168627 685:0.858824 686:0.898039 687:0.666667 688:0.235294 689:0.0117647 
0 0 0 0 0 0.9817478658843601 0 0 0 123:0.0745098 124:0.643137 125:0.996078 126:1 127:0.670588 128:0.611765 129:0.282353 151:0.309804 152:0.992157 153:0.992157 154:0.996078 155:0.992157 156:0.992157 157:0.85098 158:0.137255 179:0.309804 180:0.992157 181:0.992157 182:0.996078 183:0.992157 184:0.992157 185:0.992157 186:0.607843 207:0.0235294 208:0.431373 209:0.458824 210:0.0745098 211:0.0745098 212:0.501961 213:0.992157 214:0.607843 239:0.0313725 240:0.717647 241:0.992157 242:0.607843 267:0.698039 268:0.996078 269:0.996078 270:0.521569 292:0.0156863 293:0.0784314 294:0.462745 295:0.909804 296:0.992157 297:0.890196 298:0.121569 320:0.27451 321:0.992157 322:0.996078 323:0.992157 324:0.992157 325:0.458824 348:0.478431 349:0.992157 350:0.996078 351:0.992157 352:0.992157 353:0.890196 354:0.184314 376:0.156863 377:0.992157 378:0.996078 379:0.992157 380:0.992157 381:0.992157 382:0.901961 404:0.0627451 405:0.384314 406:0.388235 407:0.0588235 408:0.121569 409:0.713725 410:0.996078 411:0.239216 437:0.211765 438:0.992157 439:0.556863 465:0.156863 466:0.992157 467:0.764706 493:0.505882 494:0.992157 495:0.764706 520:0.121569 521:0.858824 522:0.992157 523:0.764706 540:0.180392 541:0.231373 542:0.0352941 547:0.227451 548:0.878431 549:0.996078 550:0.905882 551:0.14902 568:0.764706 569:0.996078 570:0.298039 573:0.0627451 574:0.54902 575:0.968627 576:0.992157 577:0.992157 578:0.607843 596:0.764706 597:0.905882 598:0.235294 599:0.309804 600:0.658824 601:0.921569 602:0.996078 603:0.992157 604:0.992157 605:0.941176 606:0.27451 624:0.764706 625:0.996078 626:0.960784 627:0.992157 628:0.992157 629:0.992157 630:0.996078 631:0.980392 632:0.572549 633:0.239216 652:0.615686 653:0.996078 654:0.992157 655:0.992157 656:0.992157 657:0.992157 658:0.607843 659:0.266667 
0 0.3049477403829292 0.7074775935798597 1 1 1 0 1 1 124:0.0823529 125:0.321569 126:0.6 127:0.501961 128:0.341176 129:0.92549 130:0.894118 131:0.294118 151:0.0392157 152:0.796078 153:0.996078 154:0.996078 155:0.996078 156:0.996078 157:0.996078 158:0.996078 159:0.870588 160:0.113725 179:0.0509804 180:0.890196 181:0.996078 182:0.996078 183:0.996078 184:0.996078 185:0.862745 186:0.996078 187:0.996078 188:0.223529 208:0.4 209:0.772549 210:0.603922 211:0.396078 212:0.0431373 213:0.0470588 214:0.996078 215:1 216:0.223529 241:0.360784 242:0.996078 243:0.870588 244:0.0352941 269:0.686275 270:0.996078 271:0.572549 295:0.0666667 296:0.623529 297:0.992157 298:0.996078 299:0.470588 319:0.0666667 320:0.0784314 321:0.14902 322:0.454902 323:0.760784 324:0.996078 325:0.996078 326:0.839216 327:0.113725 345:0.239216 346:0.698039 347:0.94902 348:0.996078 349:0.996078 350:0.996078 351:0.996078 352:0.996078 353:0.984314 354:0.231373 373:0.341176 374:0.996078 375:0.996078 376:0.996078 377:0.996078 378:0.996078 379:0.996078 380:0.996078 381:0.980392 382:0.192157 401:0.0666667 402:0.94902 403:0.996078 404:0.996078 405:0.996078 406:0.996078 407:0.960784 408:0.972549 409:0.996078 410:0.337255 430:0.188235 431:0.321569 432:0.321569 433:0.462745 434:0.321569 435:0.101961 436:0.435294 437:0.996078 438:0.454902 464:0.145098 465:0.964706 466:0.713725 483:0.0117647 484:0.00784314 493:0.792157 494:0.72549 495:0.00392157 511:0.337255 512:0.67451 513:0.0823529 520:0.223529 521:0.929412 522:0.917647 523:0.0666667 539:0.545098 540:0.996078 541:0.803922 542:0.0784314 547:0.105882 548:0.901961 549:0.996078 550:0.654902 567:0.137255 568:0.941176 569:0.996078 570:0.866667 571:0.745098 572:0.4 573:0.329412 574:0.494118 575:0.92549 576:0.996078 577:0.996078 578:0.337255 596:0.341176 597:0.92549 598:0.996078 599:0.996078 600:0.996078 601:0.996078 602:0.996078 603:0.996078 604:0.996078 605:0.988235 606:0.25098 625:0.0823529 626:0.478431 627:0.862745 628:0.996078 629:0.996078 630:0.996078 631:0.996078 632:0.811765 633:0.184314 655:0.113725 656:0.364706 657:0.619608 658:0.929412 659:0.741176 660:0.0470588 
0.6795388723058378 0.2326320488528727 0 0 0 0 0 0.9243477126270812 1 118:0.576471 119:0.572549 120:0.572549 121:0.572549 122:0.572549 123:0.572549 124:0.835294 125:0.996078 126:1 127:0.72549 128:0.239216 129:0.0745098 146:0.996078 147:0.992157 148:0.992157 149:0.992157 150:0.992157 151:0.992157 152:0.992157 153:0.992157 154:0.992157 155:0.992157 156:0.992157 157:0.819608 158:0.101961 174:0.372549 175:0.545098 176:0.537255 177:0.2 178:0.231373 179:0.32549 180:0.470588 181:0.12549 182:0.513725 183:0.545098 184:0.545098 185:0.94902 186:0.913725 187:0.52549 188:0.027451 213:0.0352941 214:0.721569 215:0.992157 216:0.282353 242:0.235294 243:0.992157 244:0.466667 270:0.435294 271:0.992157 272:0.643137 297:0.4 298:0.866667 299:0.992157 300:0.384314 323:0.219608 324:0.498039 325:0.980392 326:0.992157 327:0.552941 328:0.0117647 349:0.0235294 350:0.482353 351:0.964706 352:0.992157 353:0.992157 354:0.992157 355:0.423529 356:0.0588235 374:0.160784 375:0.415686 376:0.635294 377:0.756863 378:0.992157 379:0.992157 380:0.992157 381:0.992157 382:0.992157 383:0.992157 384:0.956863 385:0.52549 386:0.129412 400:0.164706 401:0.615686 402:0.941176 403:0.992157 404:0.992157 405:0.992157 406:0.992157 407:0.992157 408:0.705882 409:0.631373 410:0.870588 411:0.992157 412:0.992157 413:0.992157 414:0.909804 415:0.32549 427:0.192157 428:0.678431 429:0.752941 430:0.992157 431:0.952941 432:0.643137 433:0.341176 434:0.0627451 435:0.0627451 436:0.0156863 438:0.0431373 439:0.0627451 440:0.105882 441:0.592157 442:0.945098 443:0.933333 444:0.188235 455:0.443137 456:0.827451 457:0.0588235 458:0.337255 459:0.180392 470:0.137255 471:0.6 472:0.901961 473:0.380392 483:0.462745 484:0.807843 499:0.294118 500:0.992157 501:0.568627 511:0.721569 512:0.772549 526:0.262745 527:0.968627 528:0.992157 529:0.164706 539:0.611765 540:0.976471 541:0.258824 542:0.0666667 552:0.137255 553:0.545098 554:0.941176 555:0.992157 556:0.803922 557:0.0470588 567:0.0509804 568:0.717647 569:0.992157 570:0.552941 571:0.0431373 578:0.0980392 579:0.564706 580:0.917647 581:0.992157 582:0.992157 583:0.768627 584:0.247059 596:0.627451 597:0.992157 598:0.992157 599:0.780392 600:0.290196 601:0.129412 602:0.337255 603:0.552941 604:0.886275 605:0.976471 606:0.980392 607:0.992157 608:0.992157 609:0.796078 610:0.270588 611:0.00784314 624:0.141176 625:0.882353 626:0.992157 627:0.992157 628:0.992157 629:0.992157 630:0.992157 631:0.992157 632:0.992157 633:0.992157 634:0.992157 635:0.886275 636:0.313725 637:0.0941176 653:0.0901961 654:0.466667 655:0.768627 656:0.992157 657:0.992157 658:0.992157 659:0.992157 660:0.839216 661:0.568627 662:0.470588 663:0.0901961 
1 0 0 1 1 0.06202563929281449 0 1 1 93:0.180392 94:0.564706 95:0.941176 96:0.827451 97:0.996078 98:0.807843 99:0.564706 100:0.227451 121:0.65098 122:0.992157 123:0.992157 124:0.992157 125:0.992157 126:0.992157 127:0.996078 128:0.8 129:0.160784 149:0.65098 150:0.992157 151:0.992157 152:0.992157 153:0.992157 154:0.992157 155:0.996078 156:0.992157 157:0.92549 158:0.0352941 177:0.121569 178:0.47451 179:0.47451 180:0.47451 181:0.47451 182:0.47451 183:0.721569 184:0.968627 185:0.992157 186:0.0392157 212:0.411765 213:0.992157 214:0.32549 240:0.415686 241:0.992157 242:0.32549 267:0.537255 268:0.968627 269:0.992157 270:0.0392157 292:0.109804 293:0.176471 294:0.552941 295:0.996078 296:0.992157 297:0.752941 298:0.0156863 319:0.356863 320:0.894118 321:0.992157 322:0.992157 323:0.996078 324:0.992157 325:0.721569 326:0.278431 347:0.854902 348:0.992157 349:0.992157 350:0.992157 351:0.996078 352:0.992157 353:0.992157 354:0.984314 355:0.584314 356:0.286275 375:0.913725 376:0.996078 377:0.996078 378:0.996078 379:0.929412 380:0.901961 381:0.996078 382:0.996078 383:0.996078 384:0.996078 385:0.952941 403:0.796078 404:0.835294 405:0.415686 406:0.301961 407:0.133333 408:0.0823529 409:0.301961 410:0.737255 411:0.992157 412:0.992157 413:0.980392 414:0.384314 427:0.156863 428:0.545098 431:0.0823529 432:0.0666667 438:0.0156863 439:0.266667 440:0.737255 441:0.992157 442:0.964706 443:0.215686 454:0.0235294 455:0.631373 456:0.678431 468:0.168627 469:0.913725 470:0.992157 471:0.258824 482:0.262745 483:0.992157 484:0.47451 496:0.0784314 497:0.588235 498:0.992157 499:0.258824 510:0.415686 511:0.992157 512:0.843137 513:0.34902 514:0.0745098 519:0.305882 522:0.0313725 523:0.631373 524:0.854902 525:0.992157 526:0.992157 527:0.258824 538:0.286275 539:0.988235 540:0.992157 541:0.992157 542:0.929412 543:0.909804 544:0.835294 545:0.8 546:0.909804 547:0.988235 548:0.909804 549:0.909804 550:0.917647 551:0.992157 552:0.992157 553:0.992157 554:0.815686 555:0.0235294 567:0.556863 568:0.992157 569:0.992157 570:0.992157 571:0.992157 572:0.992157 573:0.992157 574:0.992157 575:1 576:0.992157 577:0.992157 578:0.992157 579:0.992157 580:0.992157 581:0.984314 582:0.321569 595:0.101961 596:0.509804 597:0.992157 598:0.992157 599:0.992157 600:0.992157 601:0.992157 602:0.992157 603:0.996078 604:0.992157 605:0.992157 606:0.992157 607:0.796078 608:0.537255 609:0.247059 624:0.0117647 625:0.223529 626:0.372549 627:0.768627 628:0.917647 629:0.882353 630:0.615686 631:0.560784 632:0.560784 633:0.392157 634:0.129412 635:0.0470588 
0 0 0 1 1 0 0 0 0 124:0.113725 125:0.113725 126:0.0745098 149:0.447059 150:0.662745 151:0.662745 152:0.992157 153:0.988235 154:0.878431 155:0.662745 156:0.666667 157:0.368627 158:0.14902 176:0.0509804 177:0.807843 178:0.988235 179:0.988235 180:0.992157 181:0.988235 182:0.988235 183:0.988235 184:0.992157 185:0.988235 186:0.658824 205:0.368627 206:0.545098 207:0.745098 208:0.796078 209:0.988235 210:0.988235 211:0.988235 212:0.992157 213:0.988235 214:0.952941 215:0.0980392 240:0.160784 241:0.992157 242:0.992157 243:0.501961 266:0.0745098 267:0.419608 268:0.847059 269:0.988235 270:0.768627 271:0.0352941 292:0.188235 293:0.627451 294:0.843137 295:0.988235 296:0.992157 297:0.913725 298:0.439216 319:0.592157 320:0.945098 321:0.988235 322:0.988235 323:0.988235 324:0.992157 325:0.768627 346:0.333333 347:0.992157 348:1 349:0.992157 350:0.992157 351:0.992157 352:1 353:0.992157 354:0.992157 355:0.796078 356:0.309804 357:0.0392157 374:0.258824 375:0.866667 376:0.894118 377:0.839216 378:0.568627 379:0.866667 380:0.992157 381:0.988235 382:0.988235 383:0.988235 384:0.992157 385:0.768627 386:0.247059 403:0.0980392 404:0.121569 405:0.0745098 407:0.0980392 408:0.219608 409:0.509804 410:0.658824 411:0.266667 412:0.992157 413:0.988235 414:0.917647 415:0.231373 440:0.109804 441:0.698039 442:0.988235 443:0.941176 452:0.160784 453:0.329412 469:0.223529 470:0.992157 471:0.992157 480:0.74902 481:0.427451 497:0.513725 498:0.988235 499:0.988235 508:0.207843 509:0.941176 510:0.317647 523:0.494118 524:0.776471 525:0.917647 526:0.988235 527:0.643137 536:0.0627451 537:0.843137 538:0.952941 539:0.294118 546:0.14902 547:0.247059 548:0.447059 549:0.737255 550:0.882353 551:0.976471 552:0.992157 553:0.988235 554:0.694118 555:0.0588235 565:0.615686 566:0.992157 567:0.992157 568:0.552941 569:0.552941 570:0.552941 571:0.552941 572:0.603922 573:0.992157 574:0.992157 575:0.992157 576:1 577:0.992157 578:0.992157 579:0.992157 580:0.937255 581:0.588235 582:0.0980392 593:0.0745098 594:0.745098 595:0.988235 596:0.992157 597:0.988235 598:0.988235 599:0.988235 600:0.992157 601:0.988235 602:0.988235 603:0.988235 604:0.992157 605:0.941176 606:0.768627 607:0.768627 608:0.14902 622:0.0745098 623:0.415686 624:0.698039 625:0.988235 626:0.878431 627:0.952941 628:0.658824 629:0.658824 630:0.658824 631:0.658824 632:0.415686 633:0.168627 652:0.0156863 653:0.109804 654:0.0745098 655:0.0980392 
0.3607961407862474 0 0 1 1 1 0.2839429768693059 0 1 93:0.117647 94:0.929412 95:0.996078 96:0.898039 97:0.305882 98:0.0509804 121:0.0823529 122:0.760784 123:0.992157 124:0.996078 125:0.992157 126:0.917647 127:0.505882 128:0.133333 150:0.0196078 151:0.180392 152:0.541176 153:0.866667 154:0.976471 155:0.992157 156:0.945098 157:0.615686 158:0.117647 182:0.223529 183:0.529412 184:0.862745 185:0.992157 186:0.803922 213:0.67451 214:0.996078 215:0.270588 240:0.117647 241:0.623529 242:0.992157 243:0.529412 266:0.0745098 267:0.356863 268:0.929412 269:0.992157 270:0.917647 271:0.14902 293:0.4 294:0.941176 295:0.992157 296:0.996078 297:0.992157 298:0.407843 319:0.101961 320:0.733333 321:0.996078 322:0.996078 323:0.996078 324:1 325:0.929412 326:0.470588 327:0.0745098 347:0.556863 348:0.996078 349:0.992157 350:0.992157 351:0.992157 352:0.996078 353:0.992157 354:0.992157 355:0.796078 356:0.447059 357:0.0823529 375:0.52549 376:0.901961 377:0.568627 378:0.537255 379:0.537255 380:0.541176 381:0.537255 382:0.701961 383:0.901961 384:0.996078 385:0.760784 386:0.0196078 412:0.368627 413:0.960784 414:0.572549 441:0.317647 442:0.901961 469:0.313725 470:0.901961 495:0.0352941 496:0.423529 497:0.976471 498:0.866667 521:0.133333 522:0.298039 523:0.721569 524:0.996078 525:0.992157 526:0.278431 546:0.258824 547:0.372549 548:0.635294 549:0.960784 550:0.996078 551:0.996078 552:0.92549 553:0.462745 565:0.168627 566:0.164706 570:0.184314 571:0.541176 572:0.545098 573:0.741176 574:0.976471 575:0.992157 576:0.996078 577:0.992157 578:0.909804 579:0.678431 580:0.0666667 593:0.737255 594:0.976471 595:0.811765 596:0.815686 597:0.811765 598:0.960784 599:0.992157 600:0.996078 601:0.992157 602:0.984314 603:0.901961 604:0.670588 605:0.345098 606:0.0980392 621:0.14902 622:0.729412 623:0.992157 624:0.996078 625:0.992157 626:0.992157 627:0.992157 628:0.631373 629:0.560784 630:0.247059 
0 0 0 1 1 0 0 0 0 94:0.223529 95:0.992157 96:0.992157 97:0.94902 98:0.552941 99:0.207843 100:0.0627451 122:0.223529 123:0.988235 124:0.988235 125:0.992157 126:0.988235 127:0.988235 128:0.843137 129:0.615686 130:0.0745098 150:0.14902 151:0.917647 152:0.988235 153:0.992157 154:0.988235 155:0.988235 156:0.988235 157:0.992157 158:0.745098 159:0.0745098 179:0.0862745 180:0.305882 181:0.54902 182:0.545098 183:0.894118 184:0.988235 185:0.992157 186:0.988235 187:0.219608 212:0.2 213:0.701961 214:0.992157 215:0.466667 241:0.113725 242:0.988235 243:0.658824 268:0.14902 269:0.603922 270:0.988235 271:0.658824 295:0.34902 296:0.882353 297:0.992157 298:0.988235 299:0.266667 317:0.101961 318:0.0745098 319:0.113725 320:0.309804 321:0.603922 322:0.992157 323:0.992157 324:0.992157 325:0.984314 326:0.490196 344:0.298039 345:0.956863 346:0.882353 347:0.988235 348:0.988235 349:0.992157 350:0.988235 351:0.988235 352:0.988235 353:0.956863 354:0.368627 355:0.0509804 372:0.443137 373:0.992157 374:0.988235 375:0.988235 376:0.988235 377:0.992157 378:0.988235 379:0.988235 380:0.988235 381:0.992157 382:0.988235 383:0.819608 384:0.380392 400:0.443137 401:0.992157 402:0.988235 403:0.988235 404:0.988235 405:0.992157 406:0.988235 407:0.988235 408:0.988235 409:0.992157 410:0.988235 411:0.988235 412:0.988235 413:0.839216 414:0.14902 425:0.0509804 437:0.0509804 438:0.541176 439:0.921569 440:0.992157 441:1 442:0.894118 443:0.121569 453:0.541176 467:0.109804 468:0.521569 469:0.992157 470:0.988235 471:0.584314 472:0.027451 481:0.733333 497:0.305882 498:0.988235 499:0.988235 500:0.109804 509:0.0509804 525:0.113725 526:0.988235 527:0.988235 528:0.305882 537:0.701961 538:0.552941 539:0.207843 540:0.113725 541:0.113725 542:0.113725 543:0.0627451 544:0.113725 545:0.113725 546:0.0862745 547:0.0901961 548:0.113725 549:0.160784 550:0.552941 551:0.552941 552:0.552941 553:1 554:0.992157 555:0.992157 556:0.305882 565:0.552941 566:0.988235 567:0.988235 568:0.988235 569:0.992157 570:0.988235 571:0.843137 572:0.988235 573:0.992157 574:0.917647 575:0.917647 576:0.988235 577:0.992157 578:0.988235 579:0.988235 580:0.988235 581:0.992157 582:0.988235 583:0.666667 584:0.0352941 593:0.121569 594:0.509804 595:0.658824 596:0.952941 597:0.992157 598:0.988235 599:0.988235 600:0.988235 601:0.992157 602:0.988235 603:0.988235 604:0.988235 605:0.992157 606:0.988235 607:0.988235 608:0.988235 609:0.658824 610:0.556863 611:0.0509804 624:0.0980392 625:0.356863 626:0.545098 627:0.545098 628:0.745098 629:0.54902 630:0.545098 631:0.894118 632:0.988235 633:0.945098 634:0.545098 635:0.403922 636:0.109804 
0 1 1 0 1 0 0 1 1 150:0.0941176 151:0.333333 152:0.541176 153:0.576471 154:0.423529 155:0.372549 156:0.294118 157:0.152941 158:0.152941 159:0.152941 160:0.027451 177:0.0313725 178:0.894118 179:0.996078 180:0.996078 181:0.996078 182:0.996078 183:0.996078 184:0.996078 185:0.996078 186:0.996078 187:0.996078 188:0.768627 189:0.670588 190:0.219608 205:0.0431373 206:0.988235 207:0.980392 208:0.976471 209:0.976471 210:0.976471 211:0.976471 212:0.792157 213:0.976471 214:0.976471 215:0.976471 216:0.984314 217:0.996078 218:0.964706 219:0.137255 234:0.25098 235:0.0941176 244:0.164706 245:0.658824 246:0.996078 247:0.827451 273:0.266667 274:0.996078 275:0.862745 298:0.00784314 299:0.337255 300:0.643137 301:0.952941 302:0.996078 303:0.552941 325:0.0745098 326:0.643137 327:0.996078 328:0.996078 329:0.972549 330:0.505882 331:0.0588235 351:0.176471 352:0.443137 353:0.854902 354:0.996078 355:0.996078 356:0.858824 357:0.392157 376:0.0352941 377:0.341176 378:0.827451 379:0.956863 380:0.996078 381:0.996078 382:0.945098 383:0.219608 384:0.0509804 401:0.0117647 402:0.298039 403:0.639216 404:0.815686 405:0.996078 406:0.996078 407:0.996078 408:0.996078 409:0.996078 410:0.913725 411:0.0705882 429:0.533333 430:0.996078 431:0.996078 432:0.996078 433:0.996078 434:0.996078 435:0.996078 436:0.996078 437:0.996078 438:0.996078 439:0.47451 457:0.894118 458:0.996078 459:0.968627 460:0.886275 461:0.490196 462:0.152941 463:0.0627451 464:0.0627451 465:0.227451 466:0.976471 467:0.984314 468:0.156863 485:0.305882 486:0.341176 487:0.223529 493:0.0941176 494:0.968627 495:0.996078 496:0.168627 520:0.254902 521:0.803922 522:0.996078 523:0.898039 524:0.105882 546:0.0392157 547:0.364706 548:0.984314 549:0.996078 550:0.988235 551:0.301961 572:0.0196078 573:0.34902 574:0.796078 575:0.996078 576:1 577:0.996078 578:0.494118 592:0.301961 593:0.231373 598:0.254902 599:0.733333 600:0.843137 601:0.996078 602:0.996078 603:0.996078 604:0.627451 605:0.168627 606:0.00784314 620:0.576471 621:0.984314 622:0.607843 623:0.807843 624:0.980392 625:0.980392 626:0.992157 627:0.996078 628:0.988235 629:0.870588 630:0.713725 631:0.227451 632:0.00784314 648:0.639216 649:0.996078 650:0.996078 651:0.996078 652:0.996078 653:0.996078 654:0.827451 655:0.572549 656:0.278431 676:0.0235294 677:0.458824 678:0.572549 679:0.572549 680:0.572549 681:0.372549 682:0.0588235 
0 0.1690338838489915 0.778330642937596 1 1 1 0 1 0 122:0.411765 123:0.992157 124:0.992157 125:0.717647 126:0.407843 127:0.0705882 150:0.580392 151:0.988235 152:0.988235 153:0.988235 154:0.988235 155:0.780392 156:0.0823529 178:0.360784 179:0.933333 180:0.988235 181:0.988235 182:0.988235 183:0.992157 184:0.792157 185:0.0431373 207:0.109804 208:0.364706 209:0.741176 210:0.741176 211:0.890196 212:0.988235 213:0.0823529 239:0.235294 240:0.988235 241:0.427451 267:0.0313725 268:0.788235 269:0.498039 295:0.305882 296:0.988235 297:0.494118 321:0.0588235 322:0.6 323:0.960784 324:0.988235 325:0.286275 348:0.266667 349:0.882353 350:0.988235 351:0.992157 352:0.988235 353:0.290196 375:0.278431 376:0.976471 377:0.988235 378:0.988235 379:0.992157 380:0.988235 381:0.976471 382:0.827451 383:0.654902 403:0.333333 404:0.992157 405:0.992157 406:0.992157 407:1 408:0.992157 409:0.992157 410:0.992157 411:0.992157 412:0.658824 431:0.333333 432:0.988235 433:0.768627 434:0.658824 435:0.490196 436:0.658824 437:0.686275 438:0.988235 439:0.988235 440:0.952941 441:0.188235 459:0.027451 460:0.0823529 461:0.027451 465:0.00784314 466:0.0823529 467:0.596078 468:0.992157 469:0.623529 483:0.0235294 484:0.188235 496:0.717647 497:0.658824 511:0.0509804 512:0.811765 513:0.654902 524:0.92549 525:0.658824 540:0.105882 541:0.898039 542:0.65098 543:0.541176 544:0.152941 551:0.486275 552:1 553:0.592157 569:0.513725 570:0.992157 571:0.988235 572:0.968627 573:0.745098 574:0.4 575:0.278431 577:0.305882 578:0.607843 579:0.94902 580:0.870588 581:0.0627451 597:0.0352941 598:0.392157 599:0.933333 600:0.988235 601:0.988235 602:0.988235 603:0.980392 604:0.909804 605:0.984314 606:0.988235 607:0.988235 608:0.584314 627:0.109804 628:0.364706 629:0.905882 630:0.988235 631:0.992157 632:0.988235 633:0.988235 634:0.988235 635:0.713725 657:0.109804 658:0.337255 659:0.647059 660:0.988235 661:0.956863 662:0.576471 663:0.164706 
0 0 0 1 1 0 0 0.6770171068614463 1 95:0.0784314 96:0.996078 97:0.996078 98:0.847059 99:0.52549 100:0.12549 123:0.403922 124:0.992157 125:0.992157 126:0.992157 127:0.996078 128:0.423529 129:0.0784314 130:0.0352941 151:0.345098 152:0.992157 153:0.992157 154:0.992157 155:0.996078 156:0.992157 157:0.992157 158:0.827451 159:0.396078 179:0.00784314 180:0.0745098 181:0.0745098 182:0.372549 183:0.694118 184:0.909804 185:0.992157 186:0.992157 187:0.992157 212:0.105882 213:0.345098 214:0.960784 215:0.992157 216:0.14902 242:0.156863 243:0.996078 244:0.529412 269:0.027451 270:0.658824 271:0.992157 272:0.384314 295:0.0745098 296:0.631373 297:0.780392 298:0.992157 299:0.72549 300:0.117647 319:0.0156863 320:0.156863 321:0.301961 322:0.45098 323:0.937255 324:0.992157 325:0.992157 326:0.992157 327:0.403922 347:0.517647 348:0.992157 349:0.992157 350:0.992157 351:0.996078 352:0.992157 353:0.992157 354:0.576471 355:0.054902 374:0.231373 375:0.996078 376:0.996078 377:0.996078 378:0.996078 379:1 380:0.996078 381:0.996078 382:0.87451 383:0.141176 402:0.12549 403:0.862745 404:0.937255 405:0.913725 406:0.764706 407:0.996078 408:0.992157 409:0.992157 410:0.992157 411:0.933333 412:0.207843 431:0.0235294 432:0.0941176 435:0.305882 436:0.45098 437:0.513725 438:0.992157 439:0.992157 440:0.92549 441:0.105882 465:0.0235294 466:0.192157 467:0.956863 468:0.996078 469:0.152941 495:0.470588 496:0.996078 497:0.152941 512:0.32549 522:0.0392157 523:0.380392 524:1 525:0.682353 540:0.717647 541:0.839216 542:0.607843 543:0.462745 544:0.345098 545:0.372549 546:0.372549 547:0.462745 548:0.635294 549:0.839216 550:0.862745 551:0.992157 552:0.996078 553:0.207843 568:0.419608 569:0.992157 570:0.996078 571:0.992157 572:0.992157 573:0.992157 574:0.992157 575:0.996078 576:0.992157 577:0.992157 578:0.992157 579:0.992157 580:0.717647 581:0.0470588 596:0.0705882 597:0.807843 598:0.996078 599:0.992157 600:0.992157 601:0.992157 602:0.992157 603:0.996078 604:0.992157 605:0.992157 606:0.968627 607:0.690196 608:0.176471 625:0.235294 626:0.847059 627:0.992157 628:0.992157 629:0.843137 630:0.694118 631:0.756863 632:0.435294 633:0.227451 634:0.192157 
1 1 1 1 1 1 1 1 1 91:0.294118 92:1 93:0.788235 94:0.87451 95:0.639216 96:0.756863 97:0.576471 118:0.137255 119:0.972549 120:0.992157 121:0.992157 122:0.992157 123:0.992157 124:0.992157 125:0.988235 126:0.45098 146:0.0156863 147:0.956863 148:0.992157 149:0.980392 150:0.890196 151:0.992157 152:0.992157 153:0.992157 154:0.988235 155:0.196078 175:0.254902 176:0.262745 177:0.235294 178:0.0784314 179:0.262745 180:0.52549 181:0.807843 182:0.992157 183:0.501961 209:0.262745 210:0.992157 211:0.803922 212:0.0117647 236:0.0705882 237:0.588235 238:0.992157 239:0.992157 240:0.0196078 262:0.0431373 263:0.254902 264:0.596078 265:0.992157 266:0.992157 267:0.462745 268:0.00392157 289:0.0705882 290:0.890196 291:0.992157 292:0.992157 293:0.992157 294:0.909804 295:0.219608 296:0.243137 297:0.160784 317:0.105882 318:0.992157 319:0.992157 320:0.992157 321:0.992157 322:0.992157 323:0.933333 324:0.992157 325:0.937255 326:0.615686 327:0.305882 328:0.0117647 345:0.0823529 346:0.933333 347:0.992157 348:0.992157 349:0.988235 350:0.913725 351:0.992157 352:0.992157 353:0.992157 354:0.992157 355:0.992157 356:0.772549 357:0.152941 374:0.141176 375:0.2 376:0.2 377:0.196078 378:0.12549 379:0.2 380:0.2 381:0.505882 382:0.811765 383:0.992157 384:0.992157 385:0.941176 386:0.270588 410:0.0117647 411:0.0196078 412:0.419608 413:0.941176 414:0.988235 415:0.588235 441:0.439216 442:0.945098 443:0.941176 444:0.137255 470:0.305882 471:0.992157 472:0.560784 498:0.572549 499:0.992157 500:0.462745 509:0.823529 510:0.490196 511:0.0980392 512:0.0235294 524:0.00784314 525:0.360784 526:0.921569 527:0.992157 528:0.180392 537:0.611765 538:0.992157 539:0.992157 540:0.756863 541:0.466667 542:0.0823529 551:0.192157 552:0.494118 553:0.992157 554:0.992157 555:0.843137 556:0.0588235 565:0.027451 566:0.458824 567:0.772549 568:0.984314 569:0.992157 570:0.898039 571:0.854902 572:0.854902 573:0.854902 574:0.854902 575:0.854902 576:0.854902 577:0.854902 578:0.854902 579:0.952941 580:0.992157 581:0.992157 582:0.992157 583:0.407843 596:0.270588 597:0.737255 598:0.92549 599:0.992157 600:0.992157 601:0.992157 602:0.992157 603:0.992157 604:0.992157 605:0.992157 606:0.992157 607:0.992157 608:0.992157 609:0.933333 610:0.568627 626:0.12549 627:0.207843 628:0.686275 629:0.992157 630:0.992157 631:0.992157 632:0.992157 633:0.992157 634:0.945098 635:0.584314 636:0.223529 637:0.133333 
0 1 1 0.7288089341005659 0 0 1 0 0 153:0.156863 154:0.439216 155:0.921569 156:0.933333 157:0.760784 158:0.541176 159:0.054902 178:0.105882 179:0.372549 180:0.470588 181:0.960784 182:0.996078 183:0.996078 184:0.847059 185:0.996078 186:0.996078 187:0.435294 206:0.34902 207:1 208:0.996078 209:0.870588 210:0.364706 211:0.0392157 212:0.0235294 213:0.372549 214:0.996078 215:0.690196 234:0.694118 235:0.976471 236:0.403922 237:0.0431373 241:0.34902 242:0.996078 243:0.392157 262:0.458824 263:0.839216 268:0.0862745 269:0.847059 270:0.984314 271:0.254902 296:0.564706 297:0.996078 298:0.47451 322:0.12549 323:0.627451 324:0.996078 325:0.976471 326:0.054902 348:0.0627451 349:0.423529 350:0.866667 351:0.996078 352:0.996078 353:0.878431 354:0.141176 374:0.00784314 375:0.407843 376:0.878431 377:0.996078 378:0.984314 379:0.65098 380:0.639216 381:0.996078 382:0.862745 383:0.12549 402:0.372549 403:0.996078 404:0.996078 405:0.815686 406:0.14902 408:0.133333 409:0.94902 410:0.996078 411:0.286275 429:0.0823529 430:0.937255 431:0.788235 432:0.203922 433:0.0352941 436:0.0705882 437:0.854902 438:0.996078 439:0.286275 457:0.00392157 458:0.0196078 459:0.0117647 465:0.756863 466:0.996078 467:0.286275 492:0.12549 493:0.941176 494:0.996078 495:0.286275 520:0.215686 521:0.996078 522:0.831373 523:0.0196078 548:0.698039 549:0.996078 550:0.345098 571:0.0705882 575:0.192157 576:0.988235 577:0.996078 578:0.0588235 598:0.196078 599:0.898039 602:0.054902 603:0.54902 604:0.996078 605:0.654902 606:0.0196078 626:0.639216 627:0.937255 628:0.0431373 629:0.219608 630:0.729412 631:0.996078 632:0.839216 633:0.0352941 654:0.439216 655:0.996078 656:0.996078 657:0.996078 658:0.996078 659:0.658824 660:0.156863 682:0.054902 683:0.733333 684:0.996078 685:0.811765 686:0.180392 687:0.0392157 
